{
  "weights": {
    "pos_0": {
      "W1": [
        [
          0.4220533003816328,
          0.20455235627485552,
          -0.09244916718181408,
          0.9986081303364053,
          -0.4178776946185803,
          0.0942683343890815,
          0.1464683435695755,
          0.48094297240214534,
          -0.6946606885265002,
          -0.3233360484439093,
          0.3802662108395802,
          0.34811541685450553,
          0.5594063453269368,
          -0.5916336384633976,
          -0.6032061066349417,
          0.47340893074026413
        ],
        [
          0.4316888957445555,
          -0.21255347368258468,
          -0.08685277756109143,
          -0.47977239319173576,
          0.8661386216210198,
          -0.5369443255372481,
          0.5399385094700903,
          -0.06847711641140912,
          0.055223908478435745,
          -0.04716918616783882,
          -0.14646721396469717,
          -0.44284470805810394,
          -0.4171721532803313,
          0.03530134015799646,
          -0.6277077954230157,
          -0.017750832725350316
        ],
        [
          0.22864851289207855,
          -0.00030368060464177205,
          -0.37781905699943147,
          0.9981308668930297,
          0.746453607017071,
          -0.6097361165678112,
          0.4468620913776989,
          0.5917452824291931,
          0.008203326057580196,
          -0.4446921991219302,
          0.5999726127299198,
          -0.008612266524501066,
          -0.2699164932634799,
          -0.23617501238073155,
          0.3447623914113145,
          0.054193406038943216
        ],
        [
          0.5470893780154528,
          -0.22893848173972325,
          0.5355717948852041,
          -0.1336147762664204,
          -0.8951202044746709,
          -0.21961703139034022,
          0.08152980015089396,
          -0.291848870186786,
          -0.04549352100745853,
          -0.4357216573745913,
          -1.3682847085841752,
          0.09313954589791835,
          0.16602045262421702,
          0.21981204174525837,
          -0.12667261512799433,
          0.620215237799932
        ],
        [
          0.06398491675771187,
          0.05454066385932997,
          -0.3089073100777646,
          -0.6116163328862477,
          0.03591699303017914,
          -0.3666773307967026,
          0.2437222074968811,
          0.30239075165608886,
          0.33675057879988113,
          -0.3630896375362121,
          0.35236751449771964,
          0.014484754124526721,
          -0.09507000431026102,
          0.6352622878826695,
          -0.6014643105619825,
          0.19667608641550333
        ],
        [
          -0.33936909546662564,
          0.0992073414798609,
          0.1794868106864275,
          0.6950690071804246,
          -0.038023582864607504,
          0.22112235741572067,
          -0.3456880767431038,
          -0.4363493130205178,
          -0.4394387948805255,
          -0.5737368195936268,
          -0.07894060418485274,
          0.04510508563901315,
          -0.3697651593440652,
          -0.8887922487862002,
          -0.5342645093652716,
          0.0642993006171522
        ],
        [
          -0.3333030558753671,
          0.31576943512093036,
          0.7151225774643906,
          0.19836076744439482,
          0.1633657351006987,
          0.7577669665760945,
          1.0525695323856719,
          0.12443410026113667,
          -0.023353843069367105,
          -0.20961933349529097,
          0.5594834678391014,
          0.12243445474343437,
          -0.3957717914271647,
          -0.4351223226918985,
          0.4839696142026576,
          0.24826602383559546
        ],
        [
          -0.3714147434687753,
          0.238009926167467,
          -1.0811350387209828,
          0.6077150015462137,
          0.8588784084813902,
          0.0698245151787628,
          0.6236057042195197,
          0.07363687657576515,
          -0.11136535263241214,
          0.17782991067281767,
          -1.0266006368951484,
          1.0016017598922473,
          -0.3600609084545659,
          -0.032296250136683496,
          -0.14314330452585966,
          -0.19795207747630925
        ],
        [
          1.3310831055903514,
          0.07491807775415701,
          -0.17871111115137953,
          -0.006571077378479608,
          -0.7968863091890243,
          -0.841719317575629,
          0.34791753737485054,
          0.3792694730717296,
          -0.027863150973323002,
          0.23263864137369414,
          0.05814627561067694,
          0.5031679777411608,
          0.502941649291909,
          -0.301513980490031,
          0.7134196072395264,
          -0.1768838956414586
        ],
        [
          -0.9755070473465037,
          0.7297324794179292,
          -0.3816251616511017,
          0.33227039824715626,
          -0.11371438306386594,
          0.36775633672868213,
          0.6488818573770229,
          -0.6632035317984593,
          0.20772736815626783,
          0.3616182823874131,
          -1.3123447684862741,
          -0.3060929164850657,
          0.3192131918128278,
          -0.007422139424241681,
          0.11929982593204165,
          0.06690656441126143
        ]
      ],
      "b1": [
        [
          -0.015631302465753512,
          -0.006805557560297458,
          0.029049246319986705,
          -0.054914922608431525,
          0.01064711278346956,
          -0.00058054205920842,
          -0.0269843304462256,
          0.005254043005472999,
          -0.010371378276527182,
          0.002483621473223413,
          0.006002169602044573,
          -0.018363561261909512,
          -0.025363727862645638,
          -0.0050016539227921,
          0.010543790483112641,
          -0.02840984336014947
        ]
      ],
      "W2": [
        [
          -0.22519437547153534,
          0.103207817020426,
          0.24684605970572585,
          0.009481596081737589,
          -0.205983201479968,
          0.6087976832285821,
          0.09049512583092645,
          -0.5632929846143304,
          -0.1085298911753487,
          -0.4379890934378337
        ],
        [
          0.34381106222223323,
          -0.004527204070453979,
          0.40936698727407234,
          -0.08422592340606326,
          0.29240263154807955,
          0.2167614703198415,
          0.6613288442676216,
          -0.6288821840795514,
          0.01860411619073783,
          0.47044944348172657
        ],
        [
          -0.8621665406214067,
          -0.07301242394329711,
          -0.3054530768199729,
          0.21177081546182086,
          -0.008370374723451967,
          -0.49907822938168245,
          0.7204354401822748,
          0.09251128095040774,
          0.0344789950560978,
          0.9509754320055169
        ],
        [
          -0.3203053435671727,
          -0.32143545861033,
          0.7915047087491122,
          -0.19783518295583494,
          0.035858681281368245,
          0.5479288530690556,
          -0.6522526725293729,
          -0.09647072100641953,
          0.07609175973317728,
          -0.5483783210331393
        ],
        [
          0.2074288555350561,
          -0.12988073339520148,
          0.6153495001598533,
          0.5608542085675874,
          -0.3352928919864555,
          0.40166042367459237,
          -0.5322856867395097,
          0.20647534251810354,
          0.19054645146962523,
          -0.07974817313401712
        ],
        [
          0.20102939817103122,
          0.11643685602428881,
          -0.2252841469821548,
          -0.22736062941634227,
          0.0606720178107871,
          -0.4365945506253229,
          -0.0829187174883629,
          -0.4074862268689878,
          -0.06163938564738853,
          -0.46053080529130025
        ],
        [
          -0.07553929490999327,
          -0.26422941480647555,
          0.16201642049758022,
          -0.47506509578277095,
          -0.11558119315691712,
          -0.0024948550202494274,
          0.585446682263994,
          0.1725997167357365,
          0.19695822717773476,
          0.15674230033406478
        ],
        [
          0.40081881744536474,
          -0.03301876910407713,
          0.6265707989468229,
          0.24819760150704256,
          0.8582103491956521,
          -0.0207468118588419,
          -0.03290499666377761,
          0.5489883345460984,
          1.1030775838543887,
          -0.06473197800255016
        ],
        [
          -0.6688988080887397,
          0.2989268484660535,
          0.4366259416993033,
          0.6787872085377039,
          0.3474556870642187,
          0.2523314362100348,
          -0.05458540645364269,
          0.17822553647894845,
          -0.4214192698636112,
          -0.5331454849102883
        ],
        [
          -0.004308693988783631,
          0.2708051698758589,
          0.010609864276734573,
          0.1953691877128296,
          -0.42877649914566507,
          -0.013479110984182368,
          -0.24951913525926214,
          -0.08606525330637595,
          -0.0535485248635658,
          0.6608771771593703
        ],
        [
          0.02950113415526657,
          -0.33563051668489347,
          0.4878361821607421,
          0.33935614469416436,
          -0.251794867989349,
          0.5530838962701771,
          -0.2220097769106187,
          -0.24043242383479563,
          -0.193726309109757,
          0.017588436164033796
        ],
        [
          -0.1728309882478676,
          0.3700547776955088,
          -0.883374399221373,
          -0.5587229494345581,
          0.09993409304684829,
          -0.3435353681102565,
          -0.15103201597835725,
          0.18704563585286738,
          -0.1326912068205024,
          -0.1757926813656814
        ],
        [
          0.3920261128813163,
          0.17953434970859836,
          0.0742474119903736,
          0.08346514636432717,
          0.29728264264977283,
          0.1840353453243147,
          -0.2333324369974626,
          -0.2844135064340757,
          -0.26747406063675994,
          -0.5592415350807977
        ],
        [
          -0.1429519456149293,
          0.34091913108918026,
          -0.33075021442137365,
          -0.6468306432533545,
          -0.1867567185945078,
          -0.2931379077128093,
          0.49423311215222115,
          -0.07790094136037726,
          -0.1713267572642706,
          0.21395922744686224
        ],
        [
          0.42676870142797335,
          0.7670162252716606,
          -0.015689544820635188,
          0.21364891307262893,
          -0.4139583636895783,
          -0.13821770991634102,
          -0.18658042985597764,
          0.11779211160831864,
          0.1261803563366818,
          0.6147264930562191
        ],
        [
          0.2343404049288516,
          -0.25050626762715583,
          -0.39527565234786494,
          -0.36856452121358846,
          0.43777823406487815,
          0.33121033715972925,
          -0.31841221031400674,
          -0.045265364964897616,
          -0.21970820090039495,
          0.16417092955664847
        ]
      ],
      "b2": [
        [
          -0.0023105343107790986,
          -0.004844544086084955,
          -0.02222820885446922,
          0.061528707433777585,
          -0.030434781494291335,
          -0.02383354075464336,
          -0.00358152720888382,
          -0.015178261974034362,
          0.008672629262534362,
          0.03221006199976274
        ]
      ]
    },
    "pos_1": {
      "W1": [
        [
          -0.03378316737545556,
          0.5467684122594249,
          -0.7327392383568753,
          -0.25151145057056506,
          -0.5232249217705071,
          0.7426139683242904,
          -0.2691869915419964,
          -0.42559563182440663,
          0.0008824121981450867,
          0.859211477227259,
          -0.3606735002466325,
          -0.3566376651150733,
          0.7445088050596217,
          -1.564862797296765,
          0.41122093364304074,
          0.32486021408410515
        ],
        [
          -0.054456954820535336,
          0.7224642373305058,
          0.2177354566948003,
          0.46302671397567374,
          -0.47790605222510724,
          0.8830665209465787,
          -0.6263495202213223,
          -0.8263799598906097,
          -0.05717569162258894,
          0.1690498242066118,
          0.5454035481633687,
          0.5097386548958578,
          0.32928791476343444,
          0.27834114040752306,
          0.19469866795668206,
          0.13056645614804013
        ],
        [
          0.09991590418595467,
          0.14142752904296374,
          1.1623810270859385,
          -0.2503168950562479,
          -0.07968837043502666,
          -0.30295832584681426,
          -0.8413293410903966,
          -0.20774541313618722,
          0.1381340410789121,
          -0.37674614733842615,
          0.7267633018773927,
          0.7465058917903532,
          -0.1257454782760944,
          0.27542938747596857,
          -0.43195907989919835,
          -0.19418322250509518
        ],
        [
          0.1828836912638312,
          -0.47170715018800696,
          0.06208080325746793,
          0.25169311733868494,
          0.47778362998337437,
          0.614498200833797,
          0.18353322964753943,
          0.2877919678717553,
          0.5559341426461031,
          0.08516066887321794,
          0.559666197006243,
          -0.4374825396187132,
          0.830675554218056,
          -0.1624663908711165,
          -0.40141128747499766,
          0.03110915148058727
        ],
        [
          -0.048886929790506954,
          0.505212101797992,
          -0.48137481810172084,
          -0.5159541087574793,
          0.15011441486147203,
          -0.5026736732038809,
          -0.28718932134188085,
          0.3179185286160194,
          -0.24896193463335106,
          0.3719276006265804,
          0.12278099073672323,
          -0.14550723910846425,
          -0.17094553158026823,
          0.6211220923360984,
          -0.15147483683732949,
          -0.055171405804596105
        ],
        [
          -0.43356455337385463,
          -0.24398706306283865,
          -0.4406936274647497,
          0.669356823362734,
          0.2124558256258459,
          0.4368428888382181,
          0.4574323770508294,
          0.19042235894178255,
          -0.9378601497243785,
          0.7542602553084148,
          -0.4177482677192217,
          0.7855992941346986,
          -0.058977750813955156,
          0.06535857508394774,
          -0.18083662803663617,
          0.4808666500467852
        ],
        [
          -0.5782426553204515,
          -0.16487242745317177,
          -0.2129272400727537,
          0.07394206008289299,
          -0.4815929379584293,
          -0.6048610495041056,
          -0.11017740437659086,
          0.09524413705655757,
          -0.74257272706076,
          -0.2495145839380768,
          0.11929546384934536,
          -0.42698898491186354,
          -0.17409742319204027,
          -0.8850608445479259,
          -0.061973518398404655,
          -0.05481542707976165
        ],
        [
          0.38983314120782625,
          -0.26841609564770536,
          -0.14301326630105385,
          -0.7577835170895278,
          -0.14856969037918047,
          -0.16241468753992838,
          0.4005951636347089,
          -0.8519852806905869,
          -0.3460986211675533,
          -0.24112162165952558,
          0.1402048646503766,
          -0.20454444540162936,
          0.16869377667725804,
          0.7275869579065788,
          -0.08052357171793328,
          -0.31032952356877036
        ],
        [
          0.27377399555447024,
          -0.06574639552105369,
          0.11029549893585887,
          0.1222472509789264,
          0.15104773001109226,
          -0.3880003383625157,
          -0.3957255885321743,
          -0.5341699807657334,
          0.8163419859017772,
          0.20009952017005506,
          0.3697931167532566,
          0.13311606696909192,
          0.14439342313136277,
          -0.21525818692036203,
          0.2546141085340693,
          0.48901173444049495
        ],
        [
          -0.09643397336937158,
          0.15494203040045862,
          0.5376558063563694,
          -0.17968838323937553,
          -0.39388774222402684,
          0.6804723645380751,
          0.13654604673032775,
          0.002388816476755698,
          -0.5338973024629325,
          -0.39154289645462864,
          0.05649676764891141,
          -0.5842132120639231,
          0.6900522893515317,
          -0.19001828904575582,
          -0.47626537485950865,
          -0.3887509663170176
        ]
      ],
      "b1": [
        [
          -0.0025002390864929257,
          0.0006491151804859127,
          -0.014461305173047792,
          -0.01415469087928542,
          -0.0025948511882475643,
          -0.011064799187089823,
          -0.004892096405046003,
          0.0,
          0.00857318595273068,
          0.0076185685421419555,
          -0.02949989811888767,
          0.003797958593169412,
          -0.03952467485999035,
          -0.01817364660539639,
          0.0005278104105217321,
          0.0024199026901566257
        ]
      ],
      "W2": [
        [
          0.08154203275324014,
          -0.29659143759853296,
          0.6078102880527199,
          -0.10171035909122786,
          -0.06776778852272324,
          0.17971408743335843,
          0.4233460477576394,
          0.18172349500667123,
          0.1804130830711869,
          -0.34970280462238046
        ],
        [
          0.26867718366412313,
          0.6907863907445417,
          -0.24284906986175758,
          -0.6825504023213644,
          -0.25203924256997506,
          0.10689828105550885,
          0.6133410666725252,
          0.08546718751452982,
          -0.2123591562650604,
          0.49497647962479047
        ],
        [
          -0.2595029293798764,
          -0.1701605745061793,
          0.0594886953044681,
          -0.23053115042748054,
          -0.24603306855829424,
          0.09192587862613641,
          -0.3575611199755363,
          0.22025450927946078,
          -0.1372287967973566,
          -0.3187624887234776
        ],
        [
          0.7640051539324706,
          -0.32393854286212453,
          -0.17416272205121808,
          0.2141510778564973,
          0.20430934736846618,
          -0.23972572446276183,
          0.34489667189334167,
          0.4633791156543322,
          -0.0035252969502483074,
          -0.48276040954831173
        ],
        [
          0.4612916084267821,
          0.0424870517360939,
          0.20506366758212383,
          -0.12299507438856085,
          0.18177485705731017,
          0.1442847263796372,
          0.22238331772694775,
          0.31756837615359024,
          0.19011180034741287,
          0.17865841124266074
        ],
        [
          -0.4493818624652421,
          0.10653177874002175,
          0.5822330381583379,
          0.637258272312205,
          0.3981983121090293,
          0.23354392005903274,
          -0.0804113950539099,
          0.27121086825201174,
          -0.06496333378793544,
          0.12078532492662998
        ],
        [
          -0.3405799991624271,
          -0.15373719271170075,
          0.4802070138530769,
          -0.12886724789990966,
          -0.12386056124717648,
          -0.11442906464017744,
          0.013982450128362038,
          0.2337280726366463,
          -0.32040983570675025,
          0.16786677736886366
        ],
        [
          -0.24060416508022614,
          -0.2697248229938243,
          0.16822643474386628,
          -0.38785860381291304,
          -0.6743575221598928,
          -0.2830713494950205,
          -0.05955343632517333,
          -0.1172422253994519,
          0.527519467436996,
          0.6253540759231973
        ],
        [
          0.11810016802649777,
          0.07539794152978066,
          -0.108864389071752,
          0.49456989870211454,
          -0.05239312980051098,
          0.10391841365349931,
          -0.22374159897909365,
          0.18938320218208649,
          -0.02987932383619497,
          0.08443579380896829
        ],
        [
          0.03441084659265403,
          -0.3469213970906725,
          0.1426066444388594,
          -0.22860342512591542,
          0.15689143884721357,
          0.45822039483295807,
          0.1706782153164149,
          0.05969705350104014,
          -0.12313612360341909,
          0.66840681829223
        ],
        [
          -1.0288970016804828,
          -0.030548747580467592,
          0.4459789218913025,
          -0.579183300882838,
          0.03356440452797441,
          0.12083491671332411,
          0.09539878932094815,
          0.0538756730681478,
          -0.30593566039529996,
          0.3863086604970587
        ],
        [
          0.21535123833350492,
          -0.5804944352281081,
          -0.3790244987571357,
          -0.037465619867147595,
          -0.6358341821178687,
          -0.1227877962719123,
          0.20272896350203534,
          0.0966941170391128,
          -0.5188436698574231,
          -0.6172783509484872
        ],
        [
          0.4008272132460607,
          0.03880563938933433,
          -0.25591822040723605,
          -0.31769900829022274,
          0.2410876962592682,
          0.3559784234980734,
          0.43200993406897725,
          0.7159775934723319,
          -0.27365218123232804,
          -0.05362005340705916
        ],
        [
          -0.49890043565632325,
          -0.17687698925946585,
          0.16039555264306582,
          -0.03471688641849922,
          -0.7145212268754342,
          0.20989380531912716,
          -0.1271385824780654,
          -0.16928990469800131,
          -0.4842426310799172,
          0.20154917724879698
        ],
        [
          0.19826183551645643,
          0.1019390641641776,
          -0.686335111541135,
          0.5265155061517383,
          -0.3130950959597934,
          0.7368557252314986,
          0.4077463607208523,
          -0.2169228412007094,
          0.4831856245677726,
          0.2407343555758508
        ],
        [
          0.32400054035497544,
          0.33504461199046975,
          -0.5361298220484166,
          0.008495067715536212,
          -0.12904742942578995,
          0.012378613190188681,
          0.4416257036289276,
          -0.022367626794856457,
          0.3200388363255278,
          -0.5444543507448494
        ]
      ],
      "b2": [
        [
          0.016200116225205993,
          0.00018458506786628605,
          -0.025326925901352944,
          0.01965781261061844,
          0.008484714681825262,
          -0.011041233785220409,
          -0.04638717901467638,
          -0.022649311510584382,
          0.0137059114894057,
          0.04717151014944024
        ]
      ]
    },
    "pos_2": {
      "W1": [
        [
          -0.3931901348287015,
          -0.16650363404616297,
          0.16348879364155136,
          0.018414511178633537,
          0.16184986181805913,
          -0.4359227262687681,
          0.09790298065009483,
          1.0501125288803546,
          0.404938162064134,
          -0.36803203951426294,
          0.3962512641249815,
          -0.4124271809226538,
          0.08055713522811757,
          -0.2271912087857138,
          -0.46308379620005174,
          0.4966960971925884
        ],
        [
          0.7948042042600846,
          -0.35176973576028653,
          0.26236074617363997,
          -0.007569899493478031,
          -0.5253394291731746,
          -0.5449250881951082,
          -0.16028604033373095,
          0.5013219237028044,
          -0.5390690612618427,
          0.12401092648163645,
          1.1475603025752887,
          -0.6099765871290068,
          -0.3401596446027976,
          -0.1025269733292471,
          0.0873345072771059,
          -0.7881477781876289
        ],
        [
          -0.16057156376602946,
          -0.08843468818974955,
          0.45499087806007715,
          -0.4589280612002442,
          0.23798641506598328,
          -0.05725656154883487,
          -0.49943114896873686,
          0.4903842607016713,
          0.050781630302665214,
          0.15497289247038828,
          0.07619267648434982,
          0.7696453421637323,
          -0.7147938770434784,
          0.4264005328199659,
          0.5404863240397034,
          0.3981499847832248
        ],
        [
          0.20688953458474285,
          -0.1998143914553262,
          -0.4796708391470946,
          -0.3706569028659111,
          -0.6183054364360322,
          0.22151940398200015,
          -0.8654527027340987,
          -0.27182211692122726,
          0.7150764361269435,
          -0.5363902872184312,
          -0.07831535420750659,
          0.3242494399493721,
          -0.7638142741595384,
          0.056923307119033935,
          -0.10239076304254761,
          -0.6230874340760191
        ],
        [
          0.5891195448892637,
          -0.31889684176247474,
          0.09111202800117972,
          -0.5368881420640206,
          -0.8039491093338378,
          -0.7490841761309333,
          -0.43045629140989183,
          0.6197494293982624,
          0.26959660128490087,
          0.014392919655615156,
          -0.060764122096119824,
          -0.02520550038906369,
          -0.32624069133658373,
          0.15194921066263575,
          -0.08755721870467194,
          0.27966739434571236
        ],
        [
          0.16044613345853226,
          0.0018727455350355069,
          -0.373561884445681,
          0.6639786248563704,
          0.3295138400408928,
          0.045711495443750166,
          0.23108462067095645,
          -0.7235250241936918,
          0.3444211759529889,
          0.7214067958408386,
          -0.2975806470539643,
          -0.06056287951541852,
          0.2681700345843877,
          0.48098383352260804,
          -0.05162513076092591,
          -0.27069686364137086
        ],
        [
          0.8055830876485339,
          0.27018165373315944,
          -0.003923541372929533,
          -0.618629027538472,
          -0.07080972548679138,
          0.3958086352618504,
          -0.06429114125031579,
          -0.22573160154831998,
          0.012208940883644668,
          0.08204251573191589,
          -0.1907414395280342,
          0.2238058863869982,
          -0.5396565921089338,
          0.14816479058201032,
          -0.16952277575443922,
          -0.5742992940026065
        ],
        [
          0.04918998623174045,
          0.4305816039608847,
          -0.7319669918834157,
          0.4694556472044401,
          -0.20873300695087443,
          -0.43259433612001524,
          0.11016501778247413,
          -0.7980919708829467,
          0.9245551625152345,
          -0.057855329784529154,
          0.19540439855653227,
          -0.039172509318825335,
          -0.8667472944656783,
          -0.19400942263828272,
          -0.022603244442459647,
          0.4883324340449528
        ],
        [
          0.5645330206200863,
          0.06022252629880588,
          0.09771046243930126,
          -0.12478073366175915,
          0.7569209162056422,
          0.16316542802589581,
          0.20890257936703954,
          -0.2194867030710014,
          -0.5324718322486716,
          0.3199689789007375,
          0.07474924949787042,
          -0.5280796306780678,
          -0.6982652069411162,
          -0.2729848007081983,
          -0.7909567814819848,
          -0.45676806489408683
        ],
        [
          0.7089772155679012,
          -0.9575702434401246,
          -1.0641514844019047,
          -0.936404923968653,
          0.3855508224126093,
          -0.2434866907977024,
          -0.5516334826635508,
          -0.38717403808313183,
          0.14077013793267834,
          0.554870501001656,
          -0.4336991220619155,
          0.6481129927371111,
          -0.4244393097449112,
          0.05476796177684773,
          -0.12013920699829014,
          0.43022023734670256
        ]
      ],
      "b1": [
        [
          -0.07230170770882881,
          0.009938029779799778,
          0.007547365723242348,
          -0.0014134470165101931,
          0.009691315520835022,
          -0.0001553324737134074,
          0.0,
          -0.0015455505441116359,
          -0.04568735257773153,
          -0.0012736844839474136,
          -0.0594390616791151,
          -0.010423447618847845,
          0.0,
          -0.03066849587941898,
          -0.002013304166401714,
          -0.01295025335450593
        ]
      ],
      "W2": [
        [
          -0.39102251591338066,
          0.42399115025920225,
          1.2286940669709256,
          0.20754288293446546,
          0.026425704519744575,
          -0.5201337568087737,
          0.09976044561325671,
          0.039851650797966584,
          -0.14924827947066413,
          0.02569832420466755
        ],
        [
          -0.01774587533080638,
          -0.4817854225596192,
          -0.5065622565960557,
          -0.6041494105074028,
          -0.11951193016579444,
          -0.1112669218036537,
          0.2953115380927589,
          -0.21693628380278382,
          0.16078991757340638,
          0.13289509257300824
        ],
        [
          0.4307606125838875,
          -0.09619940360701211,
          0.08324781143138323,
          0.0761224953691729,
          0.34394443361281063,
          -0.09274436009142907,
          -0.372316843331275,
          0.5318300868682598,
          -0.3686820504372564,
          -0.7275956115179514
        ],
        [
          -0.6858660278873526,
          0.46932994689020385,
          -0.014368168052183787,
          0.354746273310008,
          -0.6736485018118601,
          -0.560798648913798,
          -0.25211874457967176,
          0.22162443249028313,
          -0.7777035280632028,
          0.3928192077495232
        ],
        [
          -0.08933121044663414,
          -0.1207523421454239,
          -0.1690313521461509,
          0.527470927616474,
          -0.38098785287827486,
          0.27254108892382706,
          -0.23899733893512057,
          -0.3814852905076527,
          -0.005180369818114933,
          0.19180636342581175
        ],
        [
          -0.1559955457582165,
          0.07517462931761569,
          -0.2316774642073899,
          -0.1540531588543834,
          -0.42534779817825497,
          0.3404426876699768,
          -0.3785080918296255,
          -0.294953916000714,
          -0.24968833447559052,
          -0.10541464065899288
        ],
        [
          0.26479864248991924,
          0.32256779060537905,
          0.6597233539634988,
          -0.15418196543573906,
          -0.1324246123767944,
          -0.1074096004467757,
          -0.3459948335481512,
          0.8615946771984067,
          0.753588435831846,
          -0.2522033050721816
        ],
        [
          -0.4931518952192003,
          0.12644904503141635,
          -0.08523332596448681,
          0.532313203405979,
          -0.4033967639862072,
          -0.37890730924455107,
          -0.5183798618936994,
          0.313839434283952,
          0.2875469255231635,
          -0.219657528022153
        ],
        [
          -0.11372827674759355,
          0.08084537507000059,
          0.5716369396669833,
          0.0011818249763188597,
          -0.2606327084792848,
          -0.31759000550437855,
          0.34851751123011676,
          -0.44600599073631003,
          -0.4639087351096845,
          0.05278787241055812
        ],
        [
          -0.46016963295662017,
          -0.5559925450184228,
          0.6318227422462942,
          0.16098236918133685,
          -0.060636978705992606,
          -0.05273979856404119,
          -0.08865948980303137,
          0.011363230537289166,
          0.35559263575831923,
          0.030105739327092255
        ],
        [
          0.24187946332515736,
          -0.530846027756521,
          0.7764168149218967,
          -0.46101307737738584,
          0.20271480507247802,
          0.11047221355115094,
          -0.21977844869832866,
          -0.6037134731477127,
          -0.6625150496117386,
          -0.04407138701890808
        ],
        [
          0.19556509147445056,
          0.133366426638606,
          -0.3582900597658638,
          0.08796771739175174,
          -0.03462044701482302,
          0.10932525596700939,
          0.20046454550421486,
          -0.22573907494372494,
          0.27673350086600407,
          0.4805498935662508
        ],
        [
          -0.07787887684161116,
          0.15026567128664933,
          -0.30531610124080377,
          0.364785775257187,
          0.2517298652225113,
          0.4944654354658094,
          0.08446885827765127,
          -0.293661475239157,
          -0.40527672503031387,
          -0.05748057786956527
        ],
        [
          0.030371153310047323,
          0.6155997213718437,
          -0.08711261240153312,
          0.039392310784342244,
          -0.4065898595763665,
          -0.04004738245942244,
          0.09752509138034886,
          -0.9141736043137846,
          -0.027723098807696876,
          0.27950924243533676
        ],
        [
          0.18147674071104786,
          -0.1263773369427163,
          0.266251112116627,
          -0.3651633017486687,
          -0.47263390351100376,
          0.13078597021016122,
          0.07705546051853011,
          -0.45152978749467276,
          -0.3458480994168602,
          0.3788072398592157
        ],
        [
          -0.39962168791850317,
          0.06942525383946015,
          -0.4379243639762798,
          -0.05097041933131241,
          0.30858085130190926,
          0.18657055001467981,
          0.7002741871923993,
          -0.34230231803677047,
          -0.42098209082368876,
          -0.2172626461202125
        ]
      ],
      "b2": [
        [
          0.01286933960715657,
          -0.013622192983492782,
          -0.031084199000344044,
          -0.011909692122051514,
          -0.03760084013486643,
          0.03291346942622295,
          0.012173517584734006,
          0.03192932172428863,
          0.026496285751816864,
          -0.022165009837713526
        ]
      ]
    },
    "pos_3": {
      "W1": [
        [
          -0.20654897148288934,
          -0.5501457487763467,
          0.14390389549000504,
          0.9092963050980213,
          0.24541152528785026,
          0.2566937862925305,
          -0.01993181045433377,
          0.5199799636850251,
          -0.24584907357370714,
          0.4193286650404553,
          0.16088419198547435,
          0.6004327563076062,
          0.2662577896622892,
          -0.46266612542603985,
          -0.21291259581934227,
          -0.21265037541950088
        ],
        [
          -0.29560522757916985,
          -0.5122166267858279,
          -0.178705003329079,
          0.2607608628296623,
          0.35968410240326015,
          0.5717030055690983,
          -0.7420493769273143,
          -0.24760428930019676,
          -0.36697000366355603,
          -0.28193061488211035,
          -0.8492268317538069,
          -0.40762305790866726,
          -0.554003800590661,
          0.07540655228835791,
          -0.40116143453886255,
          0.1389361171698088
        ],
        [
          0.11566551233829521,
          0.03676560139285705,
          0.18959166884911158,
          -0.1173173632774232,
          -0.12677739926789233,
          0.05276121433589293,
          -0.8917506937247086,
          -0.3095283809253986,
          -0.1745819874590093,
          -0.34167153069974143,
          -0.7856202124132249,
          0.40900312773634856,
          0.9800203205044162,
          -0.4421104044985613,
          -0.05148897274143439,
          -0.0454248249783225
        ],
        [
          -0.3241413487760456,
          0.4221704424040585,
          -0.4909084196924522,
          0.33902519599555103,
          0.5245181338977594,
          -0.03873318311529263,
          0.1391369262268011,
          -0.5749183210308033,
          -0.8887801419131652,
          -0.707692421312722,
          0.5977922698009687,
          -0.24479196515845672,
          0.28551212390890873,
          0.5112457658055006,
          0.4887239695160649,
          0.058876791817149006
        ],
        [
          0.10257491906094955,
          0.6092102832963325,
          -0.22308932249781718,
          -0.25499001475437644,
          -0.2899626905768072,
          -0.8065169346441238,
          0.7247834006179005,
          0.5612375817946113,
          -0.08468907254593928,
          0.7119852925999813,
          -0.478763101894335,
          -0.7489688670403088,
          -0.04029339707516086,
          0.13925457654810686,
          -0.15305408867897738,
          0.29079489697404254
        ],
        [
          -0.273852105332313,
          0.47001543083906433,
          0.06687116941747435,
          -0.32448132699052723,
          0.10529029115575163,
          0.054255291651176506,
          0.6385758150925243,
          0.635474836085997,
          -0.22985910462119435,
          -0.886904422599952,
          0.8894805114228351,
          0.8726237816117401,
          -0.49471890863968854,
          -0.07481558052853296,
          -0.040538504505982655,
          -0.6124222747102802
        ],
        [
          -0.096932493514464,
          -0.8671788605150402,
          -1.0524061195801684,
          -0.20967938888665005,
          -0.6771774872794895,
          -0.1984079988429581,
          0.8230207829693212,
          0.13481699007944892,
          -0.09311362180622781,
          0.3330418308705858,
          0.054754463311041224,
          0.294734758691303,
          0.12417070520816693,
          0.11921028712898862,
          0.34339641097992735,
          -0.44118803093100567
        ],
        [
          -0.3467302385313716,
          0.3894359930379628,
          0.4597164755965315,
          0.4618584184058142,
          0.6484201126741593,
          0.3469376467761938,
          0.1655405732174639,
          0.4986909334420889,
          -0.11040686522895596,
          -0.3210925795253518,
          -0.1441468036582751,
          0.1548761318165306,
          -0.9780938838914699,
          0.12806552338490437,
          0.7918316088953101,
          0.39258286807604875
        ],
        [
          0.19229827722633416,
          -0.2464928189473681,
          0.10960485681152375,
          -0.16742424801455275,
          1.3210555445313692,
          -0.4355492391863445,
          0.24832125633795632,
          0.24866386393556936,
          -0.1675598468625634,
          0.7969726444024136,
          0.13776437111295514,
          0.5212247085736585,
          0.37635114560880156,
          0.12725381630279975,
          -0.00018218721213307168,
          0.037205049685975995
        ],
        [
          -0.9919483732355971,
          0.5725500786389315,
          -0.14033972990443133,
          -0.17889730402015422,
          -0.3059970712608581,
          -0.14631874234130526,
          -0.29244586023978447,
          -0.026616129995543993,
          -0.41258576007857317,
          -0.16906607143624028,
          0.3876012487778131,
          0.15425560364582752,
          0.025147319214944227,
          -0.2718194528851557,
          0.07214120613233597,
          0.11823985930790722
        ]
      ],
      "b1": [
        [
          0.0006673378559329183,
          0.04924408651132418,
          -0.0011947766905411811,
          0.033525181070256996,
          -0.028736013365872844,
          0.0108335249583941,
          -0.01221859405240136,
          -0.02386178406147119,
          0.0,
          -0.012669288715809584,
          -0.01650676109993665,
          -0.017084877751942604,
          -0.020730034315545327,
          -0.002258517640978281,
          0.022205896437030997,
          -0.01291024300843163
        ]
      ],
      "W2": [
        [
          -0.42345054136895355,
          0.2533746688823857,
          0.4550017691404589,
          0.012203003530519913,
          -0.29172951570202477,
          -0.347123929281039,
          -0.815288834895848,
          -0.5489577661403306,
          -0.16809338231653273,
          -0.16417113323504892
        ],
        [
          -0.19172917747905613,
          -0.43711881853910617,
          -0.027168588136500332,
          0.4142462846804424,
          0.45993021694437436,
          -0.3655364402232152,
          0.3308927644704486,
          -0.28678772566462596,
          -0.4530975992174956,
          -0.15359713288454888
        ],
        [
          -0.052282596545032006,
          -0.2639638876158546,
          -0.3124388944512862,
          -0.139421406616449,
          -0.4897134722221451,
          -0.3280472271035617,
          0.0259700313215074,
          0.10970888450251734,
          -0.38502334573886904,
          -0.33121118820115314
        ],
        [
          0.08943780695635789,
          0.13144948939825501,
          -0.10876490735366086,
          -0.08109883745463899,
          0.1945655214915515,
          -0.5603349051862806,
          -0.6524092800433448,
          0.4238065048050391,
          -0.3843479482738465,
          -0.36016327502545464
        ],
        [
          -0.17673923750640103,
          -0.3035210390575728,
          -0.3348458933985586,
          0.3684255382254127,
          -0.15140433354229474,
          0.230474958879972,
          0.6455081139235687,
          -0.07877849935210836,
          0.42050075036194146,
          -0.6783066570578898
        ],
        [
          0.5745002072342928,
          -0.6087445251464074,
          -0.6203609364167154,
          -0.24779235093226132,
          -0.3033260830182124,
          -0.47211226867992945,
          -0.23206810106700726,
          0.11667452055237751,
          -1.0445467394398582,
          -0.07816448235299309
        ],
        [
          -0.44260233479983807,
          0.37154342698179676,
          0.25525759422006394,
          -0.04305911612571711,
          0.2887557506255188,
          0.39903585748203185,
          -0.42164997680965993,
          0.432342246238505,
          0.18112533677966916,
          -0.3899522900509687
        ],
        [
          0.5779068488125936,
          -0.12036844082162297,
          -0.6635717802782094,
          -0.6371133799932012,
          -0.2638854629735128,
          -0.025751500324763095,
          -0.5695186415993646,
          0.20599407151526333,
          0.407121476653393,
          -0.03982141837474456
        ],
        [
          -0.44860840741293545,
          0.47638588775983737,
          0.6436881105142008,
          -0.370410691384759,
          -0.3197152572104072,
          -0.5511423245990806,
          0.17276577984232303,
          -0.5824846075892706,
          -0.1337397673789591,
          0.013534709237636132
        ],
        [
          -0.48829485831751657,
          0.41433478441409316,
          -0.18180803745917026,
          0.3542090862327231,
          -0.14433579232834057,
          0.5682167221513148,
          0.030862720781587936,
          -0.26023207980480556,
          0.3189471708638017,
          0.4153746120128948
        ],
        [
          0.33603181922696557,
          -0.21873007706748032,
          -0.40748489690120865,
          0.17722933683525033,
          -0.6835577632490708,
          0.17410615015779046,
          0.28557769244236514,
          0.2558852401751456,
          0.23488345944785158,
          -0.4452076794922064
        ],
        [
          0.24331459597221547,
          0.0036044738483035,
          -0.4844192733387956,
          -0.6735499257086723,
          0.6055833282527955,
          0.003913378534712784,
          -0.39856033918486944,
          0.19610284617624696,
          -0.004755509500430648,
          0.11310162441394815
        ],
        [
          0.30909062503947093,
          0.17478028482182792,
          -0.22071725584874363,
          0.08268489083294753,
          -0.3435999441248451,
          0.1783721249121628,
          -0.4387077973086542,
          -0.45039329865537225,
          0.13794671063935682,
          -0.20196347874141396
        ],
        [
          0.2347014475434145,
          0.18458642297761105,
          -0.04352223683220651,
          0.5252187191722835,
          -0.4691467882054815,
          0.037547439157094915,
          0.3677227167815794,
          0.07723391691688207,
          0.6985918861718223,
          -0.21151873625925224
        ],
        [
          -0.3862606178512974,
          0.02215548319699535,
          0.054355483808905515,
          0.43385515343768133,
          0.14262443873163058,
          -0.05882028237769808,
          -0.017272418139664892,
          0.029308792166446107,
          -0.2129050994082338,
          0.15076885093595235
        ],
        [
          0.27596186936394623,
          -0.10195077723982787,
          0.30221919090991745,
          -0.09336549618556239,
          -0.15445839380635637,
          0.15356346996157516,
          0.26842962669434367,
          0.16279435560614353,
          0.18789587476872083,
          0.2915953810111312
        ]
      ],
      "b2": [
        [
          -0.014348223931523782,
          -0.020950982818925067,
          0.03056398152161661,
          0.007942047888783887,
          0.028946883698189273,
          -0.026726438580294394,
          -0.003926114505341772,
          0.015308503945352119,
          -0.022155439455346385,
          0.005345782249826753
        ]
      ]
    },
    "pos_4": {
      "W1": [
        [
          -0.13656204073825334,
          0.8323866680028015,
          -0.47017106126787395,
          0.29195873028088465,
          -0.19749966925166845,
          0.31565496055480946,
          -0.48383723728569533,
          0.13148499374494999,
          -0.1721312983020665,
          0.1747131334202831,
          0.6049471101625854,
          0.9798025117268612,
          0.28647081299097604,
          -1.0399452367823805,
          -0.5893773131406309,
          -0.23682143658318938
        ],
        [
          0.39317172909094666,
          -0.06271276342462653,
          0.4628761467494332,
          0.1434850023493576,
          -0.759303194346209,
          -0.632250929647036,
          -0.04779196419284289,
          0.09815398136187455,
          -0.26024491879548156,
          -0.41331464262614787,
          0.7305959566886239,
          -0.8180633680545303,
          -0.4917642014860549,
          -0.11934954050973758,
          -0.5737649326165429,
          0.056107990503595814
        ],
        [
          -0.4217395557994552,
          -0.2999624263162388,
          -0.690366100479025,
          0.424916883195979,
          -0.6040263877708751,
          -0.44617888962186514,
          -0.48787357448259305,
          -0.4028872344850361,
          -0.11876237493169588,
          -0.10906256919232564,
          -0.30477621023218787,
          0.4187308418965666,
          -0.39727908995762434,
          -0.07458586621783489,
          -0.04516319516703947,
          0.9719937766437661
        ],
        [
          -0.17071084389128463,
          0.7941856036673944,
          -0.7792069715305161,
          -0.1921855917491965,
          -0.42513704542444425,
          -0.21763102398197792,
          0.17464689355197993,
          0.5429792305767442,
          0.12520592583429752,
          0.08651299523666033,
          -0.6160259427226252,
          -0.48436396914921637,
          0.3573719943586753,
          0.29815092878535693,
          0.19412932796990082,
          -0.0338619371452981
        ],
        [
          0.44019614242381394,
          0.7584526039953271,
          -0.04958800323124414,
          0.08535073527681185,
          -0.46296010919630465,
          -0.21289893264906046,
          -0.2703623403251262,
          -0.22932141800897535,
          -0.5501192374492619,
          0.015530956232782993,
          -0.11457204302828276,
          -0.28212408530033944,
          0.4422101058166949,
          0.2820933687767702,
          0.12423931805931605,
          0.030616689736052784
        ],
        [
          0.1899989950925915,
          0.21897709221679465,
          0.0343846722872616,
          -0.33566228669783976,
          -0.8856705499755751,
          0.2254073721798495,
          0.4541550506455596,
          0.02742549923160823,
          -0.030197241601307902,
          -0.7702829671349276,
          -0.011326025043704804,
          -0.1723230090395292,
          0.29939264563765594,
          -0.007774452938190017,
          -0.6224045457576111,
          -0.5476047271300843
        ],
        [
          0.5114628930750035,
          -0.32089914739454356,
          0.20474589629340095,
          0.22304445041337764,
          0.013889659613334694,
          0.17636001191843906,
          0.2545510291960867,
          -0.2981887766175962,
          -0.8684493254515061,
          0.07892613474683828,
          0.30572785183355994,
          0.34458977198231155,
          -0.4429273104538711,
          -0.2560909508270828,
          0.16509974948162467,
          0.10879688058948357
        ],
        [
          0.4020350560302166,
          0.12505933312082623,
          -0.4687092485519946,
          0.26371683982979427,
          -0.13486710331491658,
          0.1922530532484635,
          -0.8131439583950356,
          0.01012529663232778,
          0.3735694135151701,
          -0.26793152231158096,
          -0.5072091349880936,
          0.09125896645662072,
          0.7941746166634496,
          0.1627575207254942,
          -0.333417062055275,
          -1.0934821647213968
        ],
        [
          0.033991437381178095,
          0.18052482406557213,
          0.655084262988564,
          0.47772060106940323,
          -0.4550216395454354,
          0.344146374521581,
          -0.23034080072083146,
          -0.026018646264336896,
          -0.4369761903146893,
          0.2900646657719547,
          -0.33061072776780936,
          0.18133109545405057,
          -0.22641237124827623,
          -0.2679189745878535,
          -0.26473261832944556,
          0.12591178365245156
        ],
        [
          -0.4390108328100221,
          0.36744110796860885,
          0.13752926927082784,
          -0.5935603775415222,
          -0.009009779662829967,
          -0.2148579829200508,
          0.09114074268066572,
          0.4497577203179398,
          -0.2468505955337626,
          -0.17007082420097028,
          0.29339533863109163,
          0.2560234864406539,
          -0.3640278169907574,
          -0.3172981805815773,
          0.5392521099378386,
          0.3641025310444853
        ]
      ],
      "b1": [
        [
          -0.018762732312233844,
          -0.013802022189872176,
          0.0046521909492424655,
          0.007515826244719507,
          0.0,
          -0.010133945605689948,
          0.023420575407877273,
          -0.02312849308374324,
          0.0,
          0.0041148091768810355,
          -0.01040985362324748,
          -0.03991156756663909,
          -0.0003946254913578839,
          0.013522489338496261,
          0.009356774578504068,
          -0.0052145553461522874
        ]
      ],
      "W2": [
        [
          0.7572127332025492,
          0.4120835401329699,
          -0.47877278153148556,
          0.2833074117773017,
          -0.13524580705336245,
          -0.19324957598727463,
          0.2737284772508794,
          -0.6098720856486791,
          0.15942276224625168,
          -0.4649107408365105
        ],
        [
          -0.3242153938230295,
          0.1532814109876094,
          -0.2568916569743192,
          -0.21315285673270012,
          -0.38988987004744025,
          0.6177381932083728,
          -0.2685468642618986,
          0.23937580885330065,
          -0.9826348111179161,
          0.4667025373338544
        ],
        [
          0.4338427131834685,
          -0.2914331805736891,
          -0.2492980820035843,
          0.28640922888938236,
          0.26675671371294635,
          0.15940956704490217,
          0.006367429487025984,
          0.04757330741022227,
          -0.2230713181935868,
          0.7107143512329873
        ],
        [
          0.07130286150257276,
          -0.01815085638281253,
          0.007772473821955523,
          0.4095440741235572,
          0.08879180527914173,
          -0.5140338421382926,
          -0.2522061911610025,
          -0.10558393253125431,
          0.2535078349478129,
          0.14455867283060497
        ],
        [
          -0.007744419652324743,
          0.22141444628895876,
          -0.09837980907997075,
          0.5978000567687896,
          0.09198608280796922,
          0.31208894672580706,
          0.08176512322054119,
          -0.11014034954107038,
          0.5391135802073683,
          -0.025462416076969373
        ],
        [
          -0.48137328726037265,
          0.09106736816629081,
          -0.1943883481316998,
          0.2040376624713001,
          -0.3450850966867667,
          0.20781332562475333,
          -0.44255050602564555,
          0.023041230912572413,
          -0.12213638915660024,
          -0.058222506387911536
        ],
        [
          -0.021791966559621605,
          0.27444692944482985,
          -0.36429379902816017,
          -0.21100039155449488,
          -0.16203842615326,
          0.6812220331200443,
          0.34739473104217256,
          -0.5700285423373932,
          -0.048693685583497556,
          -0.37688969512530907
        ],
        [
          -0.16252270665867638,
          -0.123556797018357,
          -0.29921832012774785,
          0.5094160367819078,
          -0.21739377278855154,
          -0.7407744404083744,
          0.6056375615295789,
          -0.002662152533693754,
          -0.22434589961486875,
          -0.11568907786997674
        ],
        [
          -0.21093951646502782,
          -0.331257896416065,
          0.22186068425771277,
          0.03468813555660814,
          -0.3750524876531717,
          -0.7009998231996393,
          -0.03016929539045734,
          -0.15099490865812376,
          -0.3312907234828344,
          -0.0015921908136353996
        ],
        [
          0.4680595533085669,
          -0.4771641244346592,
          -0.0694207607460248,
          0.26467869967438734,
          0.15864231676274695,
          0.024572311067992254,
          -0.3427195681110608,
          -0.4270612988263847,
          -0.25173208313175827,
          -0.4100981611155192
        ],
        [
          0.3773952914222937,
          -0.6623426182317864,
          -0.18277818053451597,
          0.15676607559063344,
          -0.034950179729337026,
          0.08854346421513322,
          0.29944857992354285,
          -0.13073499032502967,
          0.6157982859693335,
          0.06018688908187013
        ],
        [
          0.26519724917590326,
          0.49027212569588624,
          -0.3398812115295522,
          -0.5268458775200072,
          0.38521034127296094,
          -0.1385177966982659,
          0.17882416827756115,
          0.03218433287132561,
          0.20121088519882707,
          -0.7342969777042504
        ],
        [
          0.17749067741986285,
          0.08989854905764945,
          -0.3381433350141412,
          -0.4677904215548801,
          0.08564215584402804,
          -0.2388181563064412,
          -0.03694723736858703,
          0.6077268934023271,
          -0.41725954788160546,
          0.2179689519217044
        ],
        [
          -0.5895265459154344,
          -0.46867673998676207,
          -0.4464732607040938,
          0.40842089097159695,
          -0.4265009112030236,
          -0.3667879858997943,
          -0.10401973048089956,
          0.5974123453416734,
          0.4867546744072496,
          0.46143266864616106
        ],
        [
          -0.4458882528463485,
          -0.02639054307032618,
          -0.012205813818689038,
          -0.581943084448641,
          -0.2605908407498949,
          -0.5114536800081768,
          -0.06416679475911596,
          -0.2154308507263656,
          -0.049097128613705264,
          0.6028141246689641
        ],
        [
          -0.2925814811373164,
          -0.2783509510053284,
          -0.06887423700448131,
          0.08034058727245952,
          -0.37848762924214313,
          -0.6477577233630096,
          -0.04185591582241401,
          -0.03801723718460685,
          0.15475208182000405,
          -0.5830085310097626
        ]
      ],
      "b2": [
        [
          -0.030049354613187716,
          -0.02288761762077593,
          0.028844614827022167,
          -0.00029227464377504236,
          -0.014032371247692809,
          -0.003576372289247751,
          0.019309881500387822,
          -0.008838804980362432,
          0.01597476388737533,
          0.015547535191511266
        ]
      ]
    },
    "pos_5": {
      "W1": [
        [
          -0.1454668780782298,
          0.35869836035477054,
          0.10112207483324359,
          -0.06265916524151612,
          -0.07810886948773954,
          0.14857701650851832,
          0.08663323933591012,
          0.17786909787344307,
          0.38787412528885074,
          -0.49358674735251745,
          0.7468704144394924,
          -0.7750106444742167,
          -0.13213659865751948,
          -1.0117118827515164,
          0.4492473300508374,
          0.2682219550238649
        ],
        [
          0.08138314616430646,
          0.17079838280293136,
          0.26447164215829744,
          -0.3351820426021786,
          -0.349102474686446,
          0.20841685623905634,
          0.5561280270243703,
          0.10168171840192072,
          1.0986862898631946,
          -0.24889106475249542,
          -0.2841699210724067,
          0.7984574807079423,
          -0.011617718159579377,
          0.36046214959674555,
          -0.06306625906712486,
          -0.18897793021958287
        ],
        [
          0.6402611309265284,
          -0.08809976062606543,
          0.13735677570681118,
          -0.023443459460413534,
          0.08601398961754603,
          0.21005521628844215,
          -0.6031674490453282,
          -0.06083993706495807,
          -0.6184901476957235,
          0.32407678735274786,
          0.32041549559695126,
          0.43125922986083287,
          -0.3722681235722481,
          0.006225208580750307,
          0.490692717206158,
          0.18963079151119824
        ],
        [
          -0.8993946292364328,
          0.059158905856190866,
          0.5078354688727407,
          -0.05790109200870738,
          0.39838452761833326,
          0.09184336642134612,
          0.915420956993922,
          -0.034510199666221424,
          0.09982802921807221,
          0.6142647829743905,
          -0.24324865662467418,
          0.45091419728512894,
          -0.32308474720780533,
          0.9057948397275313,
          0.08496270594966074,
          -0.6952584984775562
        ],
        [
          0.09281974151876134,
          0.28206982417891807,
          0.4804184370953437,
          0.028674457922986788,
          0.4870750579201266,
          0.9663251369050325,
          0.5498250088937598,
          -0.3733709843126158,
          0.4281535616715545,
          -0.24592755009275297,
          0.6431581588776305,
          0.29598875509922673,
          -0.09168628576809848,
          -0.4076607592030027,
          0.32276758474430994,
          -0.9417581209748077
        ],
        [
          -0.44334424362818126,
          -0.3135709833705686,
          -0.39715446227097423,
          0.14862260437001248,
          -1.0045171729880162,
          0.2785507389169574,
          0.491974338079444,
          -0.18310368834546537,
          0.020186659834412497,
          0.013104910165321636,
          0.1588798440717961,
          -0.9667078350707606,
          0.31809569978262775,
          -0.696036204684254,
          0.6561745235927544,
          0.4524022033829728
        ],
        [
          0.5928015059145435,
          -0.20217224894517477,
          0.34633904307983765,
          0.3185837700765098,
          0.2860954261145294,
          -0.16373412097789494,
          0.5320736966087265,
          -0.05621943608734738,
          -0.6573758886155485,
          -0.7018876455042244,
          0.798795623026615,
          -0.29854005348273327,
          0.6920997992737807,
          -0.3843640847524127,
          -0.19075156901973642,
          0.6221418740558317
        ],
        [
          -0.07581870393261131,
          -0.29263289200793846,
          0.15228544139236783,
          0.54340650466767,
          -0.10904327410284387,
          -0.21911081985861466,
          -0.01985798733155184,
          0.3129516069116898,
          -0.12908515349690586,
          0.008690360477603557,
          0.12057664560321991,
          0.24798004805855786,
          -0.18789291927414167,
          -0.6935488626161826,
          -0.16180980991639768,
          0.6017720221462366
        ],
        [
          -0.9653689362220255,
          0.698697811961894,
          -0.08005028381032685,
          -0.46662626158614073,
          0.2564107960782407,
          -0.3146610132906291,
          0.5561447947102179,
          0.1500637961780463,
          -0.5275441399968631,
          0.5518807495223178,
          -0.24188699691558999,
          -0.30980438093257695,
          0.009399307713982554,
          0.12742617324682776,
          -0.130433138603361,
          0.04389799288021081
        ],
        [
          -0.08264170774608116,
          -0.418101179309723,
          0.05764042956818283,
          0.12780727237403136,
          -0.21814388600222956,
          -0.12361958378721584,
          0.1593974578681723,
          -0.24980380594590187,
          1.0901417212660836,
          -0.2593012416785788,
          0.2900082291047604,
          -0.6124665770475387,
          -0.2946489714032152,
          0.10449330661525152,
          -0.05713710792704944,
          0.44648268490339804
        ]
      ],
      "b1": [
        [
          0.0,
          0.006032678100003979,
          -0.03068202656453038,
          -0.031672477849578815,
          -0.045124821556297164,
          -0.028944570588597816,
          -0.01247836940033703,
          -0.008844527821085597,
          0.01102571049547017,
          -0.009157983700702498,
          -0.03759283664312568,
          -0.00154368772419757,
          0.0050495934184723945,
          0.027023947965796248,
          -0.07575352931126708,
          -0.01928186861161518
        ]
      ],
      "W2": [
        [
          0.49662802699877967,
          0.012386458172173329,
          -0.36127612704405676,
          0.35528113830745667,
          -0.28181006072187764,
          0.3532925665926002,
          0.4201174736090482,
          -0.7661614816787955,
          0.23831939502221303,
          0.3916336837195377
        ],
        [
          -0.11985267112156961,
          -0.46792204758341627,
          0.2882863801783622,
          0.05241496234519351,
          -0.14654152813604251,
          0.44508777603448957,
          0.2966514352289105,
          0.42013773735781706,
          -0.1197828263062026,
          -0.40633808760136636
        ],
        [
          0.21735822147423364,
          -0.2869073050107371,
          0.1230217583785519,
          -0.7462004117813879,
          -0.13279287742982562,
          -0.30769805190849825,
          -0.3117067747325704,
          -0.3191923022744629,
          -0.075334631730919,
          -0.13111689242306543
        ],
        [
          -0.2962491492658032,
          -0.022005128919968885,
          -0.10930475504584669,
          0.5102055347063997,
          -0.3142184612144771,
          0.0942329491866303,
          -0.4165386678939111,
          -0.17503699043240456,
          0.7625411960104271,
          0.24683100479174103
        ],
        [
          -0.22708244099134178,
          0.7250707570088497,
          -0.24443566247420684,
          0.05890747289571672,
          -0.3736077625201866,
          -0.30783260272934543,
          -0.4729454965617398,
          0.30410878547474307,
          0.2972506543104257,
          0.04970285414367525
        ],
        [
          0.32572290570350787,
          -0.03159248828293705,
          0.2593900540879996,
          -0.09414388283908288,
          0.1766245695340471,
          -0.4295208898510714,
          -0.5278299204626897,
          0.6140644198324757,
          -0.6778923783861636,
          -0.26013997208506845
        ],
        [
          -0.34514056615075855,
          0.25242321798325207,
          0.05807299029822548,
          -0.073199884785821,
          0.534359757823312,
          -0.09576818942810368,
          0.06027571206055869,
          0.43103563197709144,
          0.14274045735554103,
          -0.050828590490564
        ],
        [
          -0.1640034416269023,
          0.15647068007339585,
          0.5541588203300926,
          -0.21879134996387162,
          0.08532182936112213,
          0.7154788437127464,
          0.1854761489760113,
          0.2440563479535221,
          -0.5067427265343876,
          0.714744726923621
        ],
        [
          0.038975063378369354,
          0.058595264440394965,
          -0.13002218132900317,
          0.256314321538483,
          -0.14307795256022732,
          -0.04950753136322047,
          0.15547933781149287,
          -0.03224512514647621,
          -0.050562534881439525,
          0.18729412772614273
        ],
        [
          0.08326102123041766,
          -0.3639486947679228,
          0.7020843875163002,
          -0.18994943730052455,
          -0.2747379088149592,
          -0.06290438510897096,
          0.11728651568524862,
          0.5075639416976621,
          0.3410393649493392,
          -0.3511248441235693
        ],
        [
          -0.5346855817013564,
          -0.21599410198993343,
          -0.2078950863461482,
          0.22638617924938845,
          -0.34761890744871365,
          -0.30255030572670805,
          -0.5639501483157932,
          -0.06712256731961114,
          0.7783230026124711,
          -0.6256883006069733
        ],
        [
          -0.38364965363381254,
          -0.07072776695935283,
          -0.47207759913031594,
          -0.17689334251608763,
          -0.4441694932561661,
          -0.21652394558049268,
          0.23293438983368914,
          -0.34460940542697843,
          -0.0914188527282856,
          0.3251656319973456
        ],
        [
          0.4479202236148608,
          -0.42396143937848857,
          -0.2131600413624828,
          0.910921743486392,
          0.27158886247730224,
          0.11971343826866299,
          -0.4740690100597084,
          0.10213225148602212,
          0.5642895872469215,
          0.3066018766780989
        ],
        [
          -0.3964110212173115,
          0.0833113349597395,
          -1.147857101889871,
          0.7131463037189777,
          -0.09391682339398999,
          0.03410461601397197,
          -0.24332902770215678,
          0.00035864999785985784,
          0.189148828711133,
          -0.9187205820723799
        ],
        [
          -0.13937995670061515,
          0.16873065395729506,
          -0.3975302845734519,
          0.07758464653291677,
          0.3801323059381477,
          -1.0318784750456964,
          -0.1194653172279695,
          0.623454492138362,
          0.5521245920397939,
          0.1086678529889123
        ],
        [
          -0.0391447065679354,
          0.3669169165247549,
          -0.15017646175067909,
          0.5729040604557373,
          0.24013861961890945,
          -0.03800441122440713,
          -0.2575768396039065,
          -0.465162012303689,
          0.5568394792079528,
          0.21498744490352018
        ]
      ],
      "b2": [
        [
          -0.007307242273470103,
          -0.018854426784423117,
          -0.01714126328374806,
          0.02976819956243206,
          0.030177411676119002,
          0.03967793070933016,
          0.019202211446520102,
          -0.03320846035976712,
          -0.03577627211132926,
          -0.00653808856800681
        ]
      ]
    },
    "pos_6": {
      "W1": [
        [
          0.7228784670213697,
          0.1998815217011252,
          0.11246056388443262,
          -0.5995964131451118,
          -0.030992371114596528,
          -1.0711848750711783,
          0.31663272003088033,
          0.10272834544982545,
          -0.1695302464576236,
          0.33453418921030537,
          0.4981641487989742,
          0.2785815252224356,
          -0.18645797757120494,
          0.6210374025060188,
          -0.10351564587429175,
          0.042692149654159614
        ],
        [
          0.33646650968713726,
          -0.6658048071340388,
          -0.06339498902288565,
          0.6020758285991225,
          -0.9356855167248931,
          0.5122065140956171,
          -0.026290523419239886,
          -0.055519853162784495,
          0.6293842268697617,
          0.010709524611921012,
          -0.08309958730930708,
          0.22301721022284296,
          0.42794529739840476,
          0.5102427659279736,
          -0.50069322615485,
          -0.5319173504771607
        ],
        [
          -0.15174807040538538,
          -0.3776218369299119,
          0.2810760788207568,
          -0.1582075643916238,
          0.3046051102253868,
          -0.009298722122229977,
          0.8137396096802398,
          -0.0029149202657874815,
          0.15456459771972678,
          0.08043730050386742,
          0.36053074956121295,
          -0.11208068723376131,
          -0.5748314267524292,
          0.619970942924977,
          -0.007115294288011766,
          0.6448260126814686
        ],
        [
          0.048303778775504055,
          0.43180095095091653,
          -0.8003765101205395,
          -0.0549503824665439,
          0.28069369582978493,
          -0.06363433914036834,
          0.015271008723363335,
          0.21851210310731556,
          -0.08342126377956488,
          0.3908762439308564,
          -0.8257313265384184,
          -0.5129032547376359,
          0.29373568373490444,
          0.06170815245722945,
          0.24146894857851792,
          0.5196442437057914
        ],
        [
          0.6633869163880722,
          -0.014745827282193483,
          -0.25785863356252925,
          0.33205775259332543,
          -0.07675962350620825,
          0.3952023007964648,
          -0.13718953643477083,
          -0.18216500401350297,
          -0.662649301670122,
          0.8393327173067774,
          0.30458209376891715,
          -0.9581158047132037,
          0.3030294636229645,
          -0.348537425544569,
          0.8110600482605397,
          -0.8148225991944473
        ],
        [
          0.1875468551196901,
          -0.03846498063842142,
          -0.3022829913693132,
          -0.09187740775892435,
          0.14000976611858237,
          -0.5498005970098314,
          -0.11629295419531625,
          -0.2907424222939898,
          -0.11550813292934652,
          -0.06070678069373829,
          0.5212347947533001,
          0.13157598718088775,
          -0.39391067222374915,
          0.38533394968180995,
          -0.03400712748053488,
          -0.5819121622635499
        ],
        [
          0.2820242092537527,
          -0.09604481378323816,
          0.05037342145828578,
          0.6709352183338799,
          -0.32262697136512153,
          0.0951522545773033,
          0.2374581793005336,
          -0.5270023242822193,
          -0.6255090962594605,
          -0.7900172925999775,
          0.18786160424670045,
          -0.39651764188951827,
          -0.0775377958475481,
          0.21005679701455596,
          -0.24496840620213103,
          -0.6010970532357519
        ],
        [
          0.2670306585668342,
          -0.0973461958005293,
          0.40649719352276903,
          0.009848522313391627,
          -0.5801085565567812,
          -0.015350843240664288,
          0.09181830075579796,
          0.024495050802285052,
          -0.19282075484753622,
          -0.034881554688057696,
          0.2957961874826385,
          -0.19989946340162124,
          -0.5493113433846636,
          0.27916047190601023,
          -0.11487367996902052,
          -0.9831148676388359
        ],
        [
          0.39248479474403913,
          0.20402303820585443,
          -0.2618497567871477,
          0.21230685380882255,
          -0.32379448525092713,
          0.12899047475082398,
          -0.13624205312722762,
          0.10190772542784755,
          -0.47812991168890845,
          0.3277885201033189,
          0.1286315537503467,
          -0.5734307445430806,
          -0.5454811690912689,
          -0.5640584948865386,
          0.2755104266944907,
          0.8307536484029927
        ],
        [
          -0.043299518036072106,
          -0.1982591023512176,
          -0.13716686671678288,
          -0.4691810017996462,
          0.8060453166587592,
          0.06559985553596531,
          -0.5827230009391924,
          0.018272366024379656,
          0.20315270976970137,
          0.2679589571157742,
          0.26621277077152444,
          -0.316925676438962,
          -0.18311470806932212,
          0.2281061815218961,
          -0.10401441104630363,
          -0.5874775289469404
        ]
      ],
      "b1": [
        [
          -0.04663863407988625,
          0.0009770511735405919,
          0.011969609213862644,
          0.03525066831375674,
          0.046501335824601905,
          0.013514369312481938,
          -0.00040353317399717596,
          0.012055670905114144,
          -0.0015634775414968937,
          0.001303987763310077,
          0.00849051231713199,
          -0.0013018736082698926,
          0.00235583809311962,
          -0.007890930945392125,
          0.01284575954373189,
          0.0
        ]
      ],
      "W2": [
        [
          0.24122306288464573,
          0.3292022572164964,
          0.2242950372147016,
          0.6421186330621954,
          0.05077081166546906,
          -0.09883674241605683,
          0.22033223992920614,
          -0.07260400719997472,
          0.5849196239362306,
          0.1866631033363138
        ],
        [
          0.4964010205119437,
          0.5111129281540217,
          -0.12558124864368725,
          0.572278002239733,
          -0.22179023390553446,
          0.29517235310492757,
          -0.10057912048505604,
          -0.09822028774945153,
          0.03518187311633131,
          0.2786334155945824
        ],
        [
          0.47392736449147593,
          -0.39588085350817254,
          -0.42480415595172377,
          0.07387048747244387,
          -0.2796379335150279,
          0.7371310835630432,
          0.07667250964819354,
          -0.09464949169471909,
          -0.8481250081296499,
          0.47281301559786204
        ],
        [
          0.20670574573647496,
          0.1032026425224274,
          -0.5366200162337168,
          -0.028873766237200536,
          0.7015674770159717,
          -0.7315113344410085,
          0.2861483535858095,
          0.09859190809948405,
          0.4124192710037243,
          -0.26800973008446055
        ],
        [
          -0.3527227702302725,
          -0.577307095710752,
          0.26635913625856045,
          -0.4785653918752147,
          0.5120931089516092,
          -0.006090624394324665,
          -0.8764190634175528,
          -0.42475771119112005,
          -0.23024065222314422,
          0.44868347753430127
        ],
        [
          0.3185856922143568,
          -0.03923488983728126,
          -0.600045301705946,
          -0.3282726737697012,
          0.20595894080425867,
          -0.419483114895398,
          -0.00829704232236601,
          -0.2796632619988893,
          0.1832262466129278,
          0.11132475665130263
        ],
        [
          -0.1409369974281914,
          -0.011502672455127299,
          0.12411677779276493,
          -0.3024303629713228,
          -0.5509890129399779,
          -0.20783677780573248,
          -0.34291397752395214,
          -0.15643801220072984,
          0.23841088294279258,
          0.22434355398326836
        ],
        [
          -0.17097534472335107,
          0.336577293512584,
          -0.13726453438169228,
          0.6076319396250868,
          -0.2473451642628438,
          -0.04499811843879059,
          -0.03382613270112386,
          -0.05039195477952736,
          0.9824453467496087,
          -0.031499687441256224
        ],
        [
          -0.42860133037072173,
          0.20067155191184904,
          0.22535855986482942,
          0.215358773550077,
          -0.0012876537801191758,
          0.3721774894446451,
          -0.3959602499568551,
          -0.07412896505228851,
          0.4941428979144058,
          0.19489398281546783
        ],
        [
          -0.04422430958262549,
          0.06478749252451979,
          -0.3747022654855792,
          0.1305949594707637,
          -0.11236317824605664,
          -0.5578358189906357,
          -0.3027477208531978,
          0.02033252859080536,
          -0.2964276463271095,
          0.3392552966302712
        ],
        [
          -0.1477604553865294,
          -0.07477821581999311,
          0.13796219284195002,
          -0.10146511724898755,
          0.0914772769769718,
          0.1894403249407511,
          -0.05698943130280812,
          -0.03931635767294117,
          0.037076118284796,
          0.4841260277462501
        ],
        [
          -0.3507149805600863,
          0.1847981641549841,
          -0.16191808132111074,
          0.05212048660285285,
          0.42565361517782885,
          0.2952780013094625,
          0.04774776325804136,
          0.33079569924031005,
          -0.1326133065784365,
          -0.3511485958056325
        ],
        [
          -0.07602985303817456,
          0.3276571138757565,
          0.7346193433805599,
          -0.2825037599751167,
          0.6282409781066108,
          0.17516056308116415,
          -0.30153796395306637,
          -0.0034434782851462723,
          -0.15434457972645385,
          -0.2692345230798486
        ],
        [
          -0.2749519327089467,
          0.443672098832102,
          -0.07325261972090295,
          0.6787576214802259,
          0.34430366224545994,
          -0.08355965096607448,
          0.4241560034613203,
          0.5475629599581885,
          0.3741650665360094,
          -0.029609290514277988
        ],
        [
          0.1609518021781303,
          0.07244675584366722,
          -0.06758820611753764,
          -0.038740251637743674,
          0.4623781859232882,
          -0.48580281458208835,
          0.3264907280571131,
          -0.10611174558392016,
          0.328085632965901,
          -0.5306159030321743
        ],
        [
          0.16640456013905294,
          0.004817113292805135,
          0.0772892709496247,
          0.2333113256071763,
          0.17825784306986076,
          0.479909025405191,
          -0.5769091761808033,
          -0.06494681232588344,
          0.19340013470996056,
          0.0767986476939653
        ]
      ],
      "b2": [
        [
          -0.0017875925076153553,
          0.007572996893135777,
          -0.02377410212175923,
          -0.04111673080485845,
          0.046371432134577235,
          0.01227087119006474,
          0.0011931957743268782,
          0.02016418672345997,
          -0.03048980160493487,
          0.009595544335767479
        ]
      ]
    }
  },
  "epochs_trained": 100,
  "learning_rate": 0.01,
  "game_name": "gluecksspirale",
  "num_digits": 7,
  "last_updated": "2025-12-20T21:25:52.729310"
}