{
  "weights": {
    "pos_0": {
      "W1": [
        [
          0.260007102677536,
          -0.10824700034633823,
          -0.22210860552830453,
          -0.866384941926784,
          1.0182313757514978,
          0.09696513889898871,
          -0.9332716387051105,
          0.041291893353296256,
          0.3611898972133855,
          1.195102723226862,
          0.5877729755740517,
          0.022693633242820564,
          0.1390148008134792,
          -0.18869738962472762,
          0.07409126789404089,
          -0.3477406931538567
        ],
        [
          -0.21475618576450792,
          0.14113783025306306,
          0.3070711228372831,
          0.14651725086718556,
          0.09116201954563645,
          0.1002335827093361,
          0.14327721820198092,
          0.1535397197493251,
          -0.09520236187039686,
          -0.07560755564404814,
          -0.25119359368147176,
          -0.09182369808240855,
          -0.4116458535207324,
          -0.47203345529629176,
          -0.7015979108675686,
          -0.7959540371108734
        ],
        [
          0.6863600756897509,
          0.14115979186786515,
          -0.11866632394015325,
          -0.027115741855669718,
          0.58866267789546,
          0.6178708377609134,
          -0.01793623522148788,
          -0.19440659135665592,
          -0.23200983109558743,
          -0.02855854948761685,
          0.41930174851901103,
          -0.028078294984404673,
          -0.2589918310570165,
          0.25024969524638047,
          0.6045129820003582,
          -0.5483740255261121
        ],
        [
          0.9961372802908205,
          -0.3525974123250015,
          0.533812018006656,
          -0.5404926004299512,
          0.2743709972027298,
          0.5703342624625457,
          0.0011836585736562989,
          0.2758417570723848,
          0.04804331490180031,
          -0.1297173423415741,
          -0.20502497493044528,
          0.3468882172867385,
          -0.22841684129419945,
          0.16943534936712,
          0.16231775795641237,
          -1.1096752295696097
        ],
        [
          -0.2634624400187583,
          0.192494533254241,
          0.2866665092629287,
          0.06266429795676315,
          -0.2193724513057862,
          0.061775311444671265,
          0.08538869537478044,
          0.3917668046782703,
          -0.05106346446433572,
          0.12865162622070084,
          0.4948849446528409,
          0.6203773957172275,
          0.40950798208729833,
          0.3316094142467892,
          -0.09859638631665978,
          -1.1253108223399937
        ],
        [
          -0.029399832210431326,
          -0.19703910655788032,
          0.13616942698821727,
          0.40775954868401426,
          -0.3117425585472016,
          -0.10212427410749268,
          -0.5463568640412974,
          0.510124536775788,
          -0.034415346850427415,
          0.3308987419252977,
          0.04885783690485847,
          0.36983034015485283,
          -0.12473869691864888,
          -0.7111576415033611,
          0.2388252975242076,
          -0.32391889668603957
        ],
        [
          0.4775344673239089,
          1.212848921144073,
          -0.23856251171038897,
          0.22903142768509027,
          -0.6626875486594951,
          0.744478949706443,
          0.025251510301895635,
          0.15917199876576663,
          0.12004811784728525,
          0.4715205295501015,
          -0.43915526809681416,
          -0.1509357063738112,
          0.07592676621213901,
          0.4086205782169167,
          0.042089105204695415,
          -0.12382749662910496
        ],
        [
          -0.4355100885757934,
          -0.3775203513399522,
          0.7409699888886154,
          0.1064481801092861,
          -0.37207257664114407,
          0.3497007422563343,
          0.35142620127233754,
          0.34937234187703214,
          -0.2609036207665963,
          -0.36124208739311486,
          -0.4667634389104561,
          -0.19106701986024083,
          -0.21237537792567776,
          -0.1972433058822178,
          -0.14928586768129082,
          -0.10268187603511875
        ],
        [
          0.04110794324267088,
          1.0252418313436509,
          0.1672788239833614,
          0.35302199526112443,
          -0.5732377505041102,
          -0.2806260248729517,
          -0.30068190959998725,
          -0.2933501893418209,
          -0.694592918320438,
          -0.05424999548104331,
          0.030534915982096747,
          0.8818508979757593,
          -0.3961049015133668,
          -0.1634987708367473,
          0.33394314269382486,
          0.4772341287514032
        ],
        [
          -0.22658120857517558,
          -0.3817011624260682,
          -1.3108481404312582,
          0.5911290941300298,
          0.3383029881059971,
          0.4378830103411514,
          -0.03883670427375171,
          -0.0950128727960639,
          0.48557305965224384,
          -0.1364703593514344,
          -0.7137399254460484,
          0.2980256065028354,
          0.37676328106439516,
          -0.7981827200529156,
          0.24888191426983514,
          0.17845692362464863
        ]
      ],
      "b1": [
        [
          -0.011004138334509899,
          0.003385135907875337,
          0.030352201444150323,
          0.015472285427060296,
          0.0004565418359973801,
          0.0007090097077910823,
          0.004658862566462022,
          0.012105101822307006,
          -0.005672063179946906,
          -0.004719118383857051,
          0.03520394347999827,
          -0.037598262871638165,
          -0.004144875560816892,
          0.0023174674847698095,
          -0.017763318157002314,
          0.0007170896816648237
        ]
      ],
      "W2": [
        [
          -0.575707476385379,
          0.038561512724214715,
          0.2677872707097309,
          -0.23259601912111855,
          0.2776444693034375,
          0.09361097354388187,
          -0.3090176069279189,
          0.5746111943248181,
          -0.27941364100890037,
          -0.14762580935946765
        ],
        [
          0.08757172835771773,
          -0.30387164877013184,
          -0.24772891439600803,
          0.5717952651389862,
          -0.2215648645879767,
          0.3862894950276577,
          -0.03496582325262559,
          0.21918938949466457,
          0.06449250539927644,
          -0.0067510277880388015
        ],
        [
          -0.38220114225404733,
          -0.30139449579476096,
          -0.2948459206774186,
          0.3870122164233684,
          -0.3784318486995456,
          0.4207409644200194,
          -0.29662604289033806,
          -0.3620726481161083,
          0.5595764864706914,
          -0.10541737564518425
        ],
        [
          -0.7334815609458449,
          0.002825168138151011,
          0.05482352765864924,
          0.4139438393821669,
          0.09817522176696472,
          0.6459936280322415,
          0.4544421877807259,
          0.18293699162586824,
          0.4528137048186887,
          -0.20745979965177727
        ],
        [
          0.4466282851298475,
          -0.026966675769603,
          0.09256764029302696,
          -0.0013286436609866784,
          -0.5091555904210608,
          -0.28557800625686197,
          0.15069020301473848,
          0.13978662817314028,
          0.2888871815827879,
          0.43323489384453234
        ],
        [
          0.16509049159997463,
          0.40315621009672287,
          0.38296092002617427,
          -0.20721252302621804,
          0.11632576574011255,
          -0.7229036467764457,
          -0.1472464490686117,
          0.034101437093240546,
          -0.07962434488854388,
          0.07458433745827317
        ],
        [
          -0.6961366852452932,
          0.30186859364294655,
          0.5404898966440238,
          -0.24033163036120284,
          0.4835755901234743,
          0.0667841257941518,
          -0.4298819475006654,
          -0.13556418494496442,
          0.0018877695766042802,
          0.4449010255903067
        ],
        [
          0.5138899072549875,
          -0.4951765845395403,
          -0.09300248567919696,
          0.5622715431155729,
          -0.23462954567570268,
          -0.7794199829065097,
          -0.25561539556214424,
          -0.21356116304539421,
          -0.3740691390921974,
          -0.1494430764831668
        ],
        [
          0.27194450429427147,
          -0.13194629536736618,
          0.15879851996123684,
          -0.7653526963404373,
          0.6105124022249108,
          0.6584818075471728,
          0.10559755712962123,
          -0.7196830906965361,
          0.37030521579745257,
          -0.512218850684154
        ],
        [
          0.05002443491848983,
          0.36105849850298416,
          -0.3279044884631459,
          -0.04520509778826302,
          0.5709236496011258,
          -0.31754230296376906,
          0.12145874595189458,
          -0.4459129375070618,
          0.009519851260229804,
          0.5630810961475515
        ],
        [
          -0.2632384692899149,
          -0.23366120047394984,
          0.2852750484473208,
          0.7947064771144391,
          0.5701250037250265,
          0.06811570684874114,
          -0.5301912322061914,
          0.14574314699301089,
          -0.09330723673630065,
          -0.3073852929073122
        ],
        [
          -0.6195497350155711,
          -0.17539092655282246,
          0.12558970123666832,
          -0.5255389474035512,
          0.11094049243361315,
          -0.3909481853719817,
          0.4344288697706388,
          -0.17015342121427735,
          -0.7819347008568451,
          -0.21488144507880041
        ],
        [
          -0.06312729816670952,
          0.09958655740992299,
          -0.33375689552462723,
          0.9350654160426987,
          0.6250828010723074,
          0.42580125027866167,
          -0.39327209360494914,
          0.2623142293243002,
          -0.16941430439997374,
          -0.3234378994021333
        ],
        [
          0.2406977437239865,
          0.025429738276757645,
          0.19924147920063467,
          0.21132078720385272,
          0.5503507355648521,
          -0.294086254140806,
          -0.04063969079114911,
          0.2576753139077718,
          0.2624779933783678,
          0.41588926647752367
        ],
        [
          0.00988027977198319,
          -0.004085746386894285,
          -0.37692026395826833,
          -0.21273485176136125,
          0.18067913363610374,
          -0.11962183888855252,
          -0.13738468790119865,
          -0.04119000601139003,
          -0.29689218532963,
          0.28905989956751416
        ],
        [
          -1.563784090614515,
          -0.24643944884925978,
          -0.40230103737980805,
          -0.495630091588526,
          0.5344408416857226,
          -0.1652330159560612,
          -0.24849337669824417,
          -0.3269015988014715,
          0.1751687190437098,
          -0.3522168837704467
        ]
      ],
      "b2": [
        [
          -0.0022068053044744357,
          0.01418078367369872,
          -0.0002804998712450552,
          0.030712385271095714,
          -0.0007191767050362441,
          -0.0018391454220581568,
          -0.023765286627558314,
          -0.018205836622011713,
          0.022632268506047836,
          -0.020508686886543667
        ]
      ]
    },
    "pos_1": {
      "W1": [
        [
          -0.6322968317436093,
          0.1440400998879419,
          -0.22626710915431109,
          -0.026950263009840762,
          -0.11760966708337886,
          0.7962850350121012,
          0.0263786461671126,
          -0.8236837371117732,
          -0.18662278958368883,
          0.9100406801990378,
          0.04927904173119651,
          -0.5927003117474784,
          0.07796521884761301,
          0.22633797116440837,
          -0.18491757332923695,
          -0.12146046083923565
        ],
        [
          0.261965800047683,
          -0.3817905013956796,
          -0.040299834574078236,
          0.9769346626370453,
          0.051798205885495524,
          -0.3097538483687627,
          -0.6262898468287305,
          -0.5704661615136415,
          0.1053508623002718,
          -0.19250827874708884,
          -0.5675144022539276,
          1.1932798867293306,
          -0.19624606587131774,
          0.37526841551110235,
          -0.4992133544504494,
          0.0021458978768279474
        ],
        [
          -0.20887435582990113,
          0.5894048598322911,
          -0.4969685302468635,
          -1.035584159065726,
          0.1672804687171527,
          0.2178193119831781,
          -0.4439370337001741,
          0.30740485244010485,
          0.3241428504863776,
          0.23684056238275977,
          -0.628778916406134,
          -0.24629550632513145,
          0.14992400151474583,
          0.34943418244498303,
          -0.30302421164459337,
          -0.4257543263759159
        ],
        [
          0.11501301769064251,
          -0.031149016064152043,
          -0.38352204266372186,
          0.014384062196725682,
          0.70171737287203,
          0.08174417793605421,
          0.3616889947369739,
          -0.6027907024709531,
          -0.47360807836420843,
          -0.39559936153670533,
          0.4038594749792499,
          -0.5885518856213929,
          0.15511295879733544,
          0.1906405234970032,
          0.1275646167146531,
          -0.4333194249032515
        ],
        [
          0.819542726973213,
          -0.23920078013773013,
          0.09341727013458578,
          0.3872721232402717,
          0.4289995932778022,
          0.22936445883901563,
          0.5012015679725091,
          -1.0200327339733186,
          -0.32849724728324364,
          0.33106366969441975,
          0.28822182979530403,
          -0.03345706590103804,
          0.7491969778286277,
          0.04710645522376765,
          -1.030527658801487,
          -0.6380286815502707
        ],
        [
          0.40775446560832856,
          0.3448001622045263,
          -0.08672420876214905,
          -0.1012194068637082,
          -0.609800897469678,
          -0.21996737315403916,
          -0.3729409489452619,
          0.5893191239962431,
          -0.7067188314979738,
          0.3904762571031982,
          -0.4304933036602286,
          -0.2757387912533514,
          0.38029019702621647,
          -0.19744717670727596,
          0.3264088226721109,
          -0.002911149463504181
        ],
        [
          -0.661690048556345,
          0.1979093016919472,
          0.9714763157468456,
          -0.21024407642891949,
          0.22939301700387704,
          -0.5639267203622308,
          0.08220186951117757,
          -0.017924552184325114,
          0.33384817072607337,
          0.06654797812267298,
          -0.2323745814427083,
          -0.8028526578739662,
          -0.5454931215842714,
          -0.17086438599591366,
          -0.2682279036514732,
          0.7134662905518938
        ],
        [
          -0.4890957583773179,
          0.012624635031865571,
          -0.09488644005011686,
          -0.47071569207317987,
          0.06255985209884533,
          0.37467036974685614,
          -0.8689695329754218,
          -0.08100227291193941,
          0.09219729490434675,
          -0.43131820342010513,
          0.5221333353321775,
          -0.8061652827982906,
          0.18781559204868617,
          0.7503525569125977,
          -0.30874154864878045,
          -0.1156409492268852
        ],
        [
          1.2125035225618808,
          0.5804755589493216,
          0.0746293067002208,
          0.3037430188499308,
          0.34101192581423767,
          -0.13127258348015103,
          0.1577858413594179,
          0.9457148500146536,
          -0.7370933649342122,
          0.8194948255984883,
          -0.35408314869710056,
          -0.5395127736784451,
          -0.4647036851519864,
          -0.3722156064142256,
          -0.271494107264585,
          0.13675399982375333
        ],
        [
          -0.07436072418821077,
          -0.3268597444939438,
          -0.13106267752170866,
          0.5991924190348646,
          -0.14746917610740043,
          -0.4172283124631472,
          -0.18553912931507083,
          -0.09224641376453174,
          -0.3703342864823936,
          0.14392520505732448,
          0.6004153787101407,
          -0.2533950157853282,
          0.368462150677236,
          -0.010261129055911984,
          0.14534168044824547,
          -0.4497208795454725
        ]
      ],
      "b1": [
        [
          -0.01736890700913367,
          0.012478948975938238,
          -0.01221239989825649,
          0.01742008304107515,
          -0.0031905773081047067,
          -0.019818862424866416,
          0.014063633473814117,
          0.009753425878023442,
          -0.002341658570500685,
          -0.0030705704631287293,
          -0.008151108540973092,
          0.0006940777859492445,
          -0.017042744124169767,
          -0.014769023202802023,
          0.0,
          -0.0032146328590912958
        ]
      ],
      "W2": [
        [
          -0.06344806403430767,
          0.14767774393333685,
          -0.3461193677076077,
          0.1578143321420621,
          0.5074773042697212,
          -0.07936753413257228,
          0.4135540468973672,
          0.4803736869768426,
          0.14682354045876425,
          -0.3352000913752468
        ],
        [
          0.0064233048909142455,
          -0.18252670240577978,
          -0.07908149404897086,
          -0.06890027755448691,
          -0.19976641999718966,
          -0.03296703433300133,
          -0.07391359122580796,
          -0.7988481117343045,
          -0.2539414696157108,
          -0.008707608997187465
        ],
        [
          0.8181217228749983,
          0.41156241744131095,
          -0.12461028028086284,
          0.419100905599589,
          -0.18094105075183645,
          0.2132789970025761,
          0.2413426739996307,
          0.2536238580645595,
          -0.120108379414851,
          0.3302241004565114
        ],
        [
          0.8078804093524509,
          0.5365061605860206,
          -0.7507627568867419,
          -0.4867578075344916,
          0.5119185288287943,
          -0.0763153614104924,
          0.5825546172601282,
          0.30224876629687447,
          -0.06556242670253684,
          0.22797033288448504
        ],
        [
          -0.08298917172465789,
          0.4848244292514757,
          0.288650822237397,
          -0.38066938520204424,
          0.17916350958684554,
          -0.4983608339105749,
          0.13572453832282144,
          -0.14315504683721025,
          0.2890686203524007,
          -0.6229520957039387
        ],
        [
          -0.2769219782601278,
          0.04169838976747349,
          0.03848131037747133,
          0.7512343288908786,
          0.09449412196973725,
          0.11615877031741575,
          0.5252556675349532,
          0.21902106820748626,
          0.0979207428504815,
          0.14843674729854883
        ],
        [
          -0.03592311126929048,
          0.21095422827991983,
          -0.3438683527492202,
          -0.005975883226975943,
          -0.11789440418121859,
          -0.15477087202556977,
          0.7435629801131992,
          -0.470872715491681,
          -0.15585939029777635,
          -0.5812012976713874
        ],
        [
          -0.011475076113583102,
          0.3985899987672887,
          -0.004928883812399617,
          0.017650905009399656,
          0.2770372451914052,
          0.13431631397186422,
          0.051738183307199016,
          -0.20308096916282045,
          0.5616737354154208,
          0.21032787451492344
        ],
        [
          0.24513883835800765,
          -0.39639896403147773,
          0.6668484098105486,
          0.0005711919282632567,
          -0.5721253775971005,
          -0.8578407139618824,
          0.2845107063663475,
          0.23092652491455887,
          0.2926356413246797,
          0.4702547447609956
        ],
        [
          -0.041171784238960014,
          -0.03899908857345159,
          0.20144863625477685,
          -0.12600101739982378,
          -0.17178141297986815,
          -0.3098568545867224,
          0.17468108560698437,
          0.16053312744321055,
          0.054501358400279386,
          -0.20875932958145973
        ],
        [
          0.4096368229491817,
          0.19270853509781263,
          0.01685906194753045,
          0.1021783784202816,
          -0.4416123422251706,
          -0.5661788359497024,
          -0.11302275030545393,
          0.6187218096018523,
          0.15073477923673131,
          -0.1832776479324246
        ],
        [
          0.41188780720582313,
          0.12209801931527371,
          -0.07727229883415795,
          0.06908198683944115,
          0.17887410639040732,
          0.15935232694545504,
          -0.21538401631764897,
          -0.29711211051956965,
          0.16688860241572803,
          0.100678702035641
        ],
        [
          -0.3193066909392582,
          -0.1056203590296196,
          -0.6450552434080338,
          0.19897930600935892,
          0.24431011336904662,
          -0.24686649176139983,
          -0.24609607631253946,
          0.01928191556071653,
          -0.10745123727294296,
          -0.4062572506334083
        ],
        [
          -0.48338778803385146,
          -0.12894194836676273,
          -0.12993510895269061,
          0.5489742019740346,
          0.07071981999717526,
          0.47729609710147114,
          -0.7382624294335977,
          -0.11233316800812786,
          -0.33035964004290147,
          -0.3005516450052791
        ],
        [
          0.44161092110981404,
          0.05034050356455197,
          -0.11758411489087897,
          0.24673495653895597,
          -0.540866970705845,
          0.7240653211721723,
          0.10916377595826826,
          -0.2547430836275142,
          0.09025777200238938,
          -0.11416047087403657
        ],
        [
          0.4992514721047252,
          -0.18521560457944874,
          0.07047343433078959,
          -0.2802241252103353,
          -0.27044208788121293,
          -0.3449859612159526,
          0.22621043786436879,
          -0.1123068191754534,
          0.11415439466727535,
          0.6075979906711688
        ]
      ],
      "b2": [
        [
          -0.0057417725417971445,
          -0.029233078535724988,
          0.009665890769159914,
          -0.018625902287308774,
          0.01762667926103193,
          -0.0041378468560779365,
          0.015057416135290934,
          -0.01877138591884607,
          0.007115965095176331,
          0.027044034890952143
        ]
      ]
    },
    "pos_2": {
      "W1": [
        [
          -0.29145793292155936,
          -0.22626635078944818,
          -0.5127374246876544,
          0.512369546853639,
          -0.5155267735921725,
          0.08449293078121924,
          0.25654603274899934,
          0.0558710457031076,
          0.024835617334671975,
          0.42943934475834594,
          0.1484065868201691,
          0.18214378963154643,
          0.483060113582285,
          -1.1103504031050577,
          -0.17790440727494758,
          0.9378816768403988
        ],
        [
          0.03363545020137563,
          -0.10316955618551828,
          0.5824794492146975,
          -0.009107380826774019,
          0.18788744955908984,
          0.22083871815939846,
          -0.5886643000120869,
          0.6129994648013013,
          -0.3640352903569815,
          -0.22781115614931172,
          -0.4779763951974266,
          -0.21390529977516684,
          -0.26146716339505977,
          0.4211463729798879,
          -0.20520505871134073,
          -0.30652831975244826
        ],
        [
          0.8901913374590078,
          0.11480750176871075,
          -0.29555079743595514,
          -0.17803612037373467,
          -0.14114070844618212,
          0.6480192047540647,
          -0.27477185741104465,
          -0.4073928025032562,
          -0.08615694933044135,
          -0.2073555765149015,
          -0.5291981776067404,
          -0.11075024854609472,
          0.2891593920145927,
          -0.33410500739252397,
          -0.11773407392904957,
          0.7131495061482827
        ],
        [
          0.4055328538137648,
          -1.2099023328512288,
          -0.7046669755450363,
          0.7349255394168861,
          0.6778985629286693,
          -0.7531975582265281,
          0.7634804436692051,
          0.07337885782375674,
          -0.5367993633777883,
          0.3277710484369813,
          0.3265913674449753,
          0.20789482044502522,
          0.39690654279048276,
          0.14655095393784387,
          0.26634604380544913,
          -0.21478467712168364
        ],
        [
          -0.6097183144298386,
          0.22748013710433604,
          -0.01538097900622039,
          0.4982927391373706,
          -0.7880664995924475,
          0.4520889567592613,
          0.057328835628317344,
          -0.5701516546470705,
          0.044551435111246436,
          -0.42255733825670005,
          0.47008650780613465,
          0.6026271409312706,
          -0.34184201910843665,
          -0.36130776749775817,
          0.2656263116230241,
          -0.6579039585622913
        ],
        [
          -0.3141894131416265,
          -1.3023673884164897,
          0.145791842691396,
          -0.37002860993601044,
          0.6655606722044086,
          0.5498307304225372,
          0.3738240928215988,
          -0.1378630377033791,
          -0.688980810016459,
          0.4076305936876379,
          0.0438166740283758,
          0.07307731323071769,
          -0.4349887834012795,
          -0.45797203254710206,
          -0.5897990053891471,
          0.45602128478304904
        ],
        [
          -0.7457414265293378,
          0.12189033364018063,
          -0.7104185947438952,
          0.30639642524113025,
          -0.2917116660274093,
          0.07145935204274112,
          0.06091318697241359,
          -0.18088792745157894,
          0.199462956941821,
          0.16042844197078074,
          -0.4650349971910513,
          0.8079895252469995,
          0.9380402767391428,
          0.11009340902241005,
          -0.09197413292476905,
          -0.17536363482392525
        ],
        [
          0.892365034415307,
          -0.5912026714424854,
          0.006631072783640756,
          -0.36937310648471966,
          0.9940871416150153,
          -0.017553329242398906,
          0.22986466864067967,
          0.2991600838994893,
          -0.2246259772056322,
          0.07460750218726868,
          0.4805071339776237,
          0.0004283573924519368,
          0.09089678669147826,
          -0.2578461179917391,
          -0.5431359817823904,
          0.06528895753925612
        ],
        [
          -0.8163835141164756,
          0.8277129785009529,
          -0.6869821145787692,
          0.09527781674115382,
          -0.0741435975736227,
          -0.5036337267284176,
          0.5709464830448586,
          0.08611502668619722,
          -0.3060646111633678,
          -0.08213342376873131,
          -0.5687032637459587,
          0.9461366255755747,
          0.25488097719305963,
          -0.7824255054771789,
          0.4010813466002096,
          0.09351440200435432
        ],
        [
          0.5490165724338499,
          -0.5575642180227816,
          0.21684540624299245,
          0.46557009351987483,
          0.5319450233567188,
          -0.17042055487415772,
          0.19657164409239608,
          0.32548074441427977,
          -0.4703141001421917,
          -0.07894094465537241,
          0.04104908739603581,
          -0.2408207205544172,
          0.297833321509004,
          0.40551208844471615,
          -0.8020862094230886,
          -0.6293808370823025
        ]
      ],
      "b1": [
        [
          -0.01045226748979061,
          0.0035684417277970426,
          0.00042914184558243037,
          -0.050060107365288924,
          0.008623172767445493,
          -0.023652654227903552,
          -0.00035154421836012135,
          -0.02247584367260751,
          0.00020120876961793178,
          0.005446685014041336,
          -0.004616174433015857,
          -0.0163996871517083,
          -0.0369598110978542,
          -0.0005666917848995415,
          -0.0008357343325090336,
          -0.020865540896489395
        ]
      ],
      "W2": [
        [
          -0.3633611193603957,
          -0.20448508014014793,
          -0.2898539990228668,
          0.5525515231285223,
          -0.04171651717045279,
          0.27163895591213266,
          0.6756318742218674,
          -0.07976339888786843,
          -0.14907260082860901,
          -0.7718106705229927
        ],
        [
          -0.589318819298189,
          -0.5734496297329498,
          -0.03871590174474293,
          -0.293905009721727,
          0.410772119560424,
          0.21155554400548812,
          -0.13028303097009114,
          0.16641537925576924,
          0.03454540684736935,
          -0.13336218987559034
        ],
        [
          -0.1310431512687756,
          -0.9155203165111911,
          0.5336972674778149,
          -0.23272807125628378,
          -0.2733722656337374,
          0.4044890406975011,
          -0.277174247394036,
          0.4401550693819521,
          -0.06830140165202184,
          0.1677644778490574
        ],
        [
          -0.22646278707905715,
          0.8773078243441877,
          -0.3523115747211596,
          -0.15781739105650167,
          -0.5100568743005435,
          0.2808213303518062,
          -0.29910126722044267,
          0.013094387423320777,
          0.203898975725394,
          0.08654167690470607
        ],
        [
          0.0719606064245572,
          0.22631600241101316,
          0.5441460991207212,
          0.2560509441562367,
          -0.08898194457724022,
          -0.5373609901679259,
          -0.37770686221566435,
          -0.6990013122877988,
          0.2846471410342583,
          0.2840166550776244
        ],
        [
          0.1082550956799549,
          0.6817505305314936,
          -0.2122648101707168,
          0.037161627361831,
          -0.4194389387253229,
          -0.33382763114744773,
          0.10245809410683797,
          -0.18555245284982852,
          -0.1839788410685387,
          0.0072586326430631
        ],
        [
          0.3987664560667179,
          -0.7647308548084114,
          0.26150326957302444,
          0.3902399324519099,
          0.5811985592273091,
          0.22941602297311958,
          -0.8419644785458812,
          0.16660343999055094,
          0.07354888561221996,
          -0.6270055357796305
        ],
        [
          -0.4904154117825357,
          -0.17098787607524507,
          0.3428870918247479,
          0.5607685970012761,
          0.2529922231358743,
          0.1361331428544486,
          -0.0769825927926677,
          -0.16455156636306856,
          -0.4691828003092344,
          -0.04016862268379512
        ],
        [
          0.1688794324593635,
          -0.32229486582883415,
          0.06208982300361369,
          0.2829465150130474,
          0.6365500258018832,
          0.11016875187207076,
          -0.39504061845244737,
          -0.0481285011212346,
          0.27752775269050334,
          0.03174415163263159
        ],
        [
          -0.13371737421010177,
          0.24891663704648528,
          1.1610109623545248,
          0.33332450404822433,
          -0.4443561145069542,
          0.06933008581320649,
          -0.2808554253824063,
          0.20311071349751264,
          0.4291885408589273,
          -0.7802586562616287
        ],
        [
          0.25385125147241877,
          -0.03161767774005064,
          0.3492025337879148,
          -0.04575848130890976,
          0.4952498484815313,
          -0.5483574242436171,
          -0.03734114736705406,
          0.176973686141385,
          0.42443409853233566,
          0.23505882260856598
        ],
        [
          -0.2422770330627904,
          0.015581566417837162,
          -0.2760950295159923,
          -0.007931865477975832,
          0.6396385464154798,
          -0.26200530153585366,
          -0.41114134774958094,
          0.43213724569276907,
          -0.34570122775100137,
          0.7514372512057259
        ],
        [
          -0.3602747732534041,
          0.574390370464989,
          -0.08078230590490308,
          0.32123862937096015,
          0.0225696221977396,
          0.017656592761291917,
          0.39872329592287703,
          0.021277755806822687,
          -0.26696554730891303,
          -0.479279527499185
        ],
        [
          -0.28802349992202375,
          -0.6649815801042305,
          0.4827246938536837,
          -0.38649669934947,
          0.24734674183785027,
          -0.20219818247514104,
          -0.004979586628295795,
          -0.23998159260627827,
          0.4134338757271872,
          -0.09033543948743551
        ],
        [
          0.4446299509663509,
          0.11600045807278304,
          0.5718323539402059,
          -0.4391783112936065,
          0.6732913763495382,
          0.5133642312329384,
          -0.2599044188561328,
          -0.19994633074299406,
          -0.09721703755540573,
          -0.29379417142154934
        ],
        [
          0.14197896276651578,
          0.0505950908772991,
          -0.024066623389008224,
          0.2682556243940693,
          0.2674522726731227,
          0.467945815002874,
          -0.0015373486956305007,
          0.4694925731027155,
          0.013765912416870365,
          0.3971622535271753
        ]
      ],
      "b2": [
        [
          0.003979988064750828,
          -0.045690524748683764,
          0.014966840154926022,
          -0.002490445872554361,
          -0.0005370075793778169,
          -0.009726172814014522,
          0.026677378321556745,
          -0.024724779046280673,
          0.017043144221238968,
          0.020501579311076497
        ]
      ]
    },
    "pos_3": {
      "W1": [
        [
          0.08968717639880666,
          -0.5521113374267573,
          -0.01204752618252138,
          -0.5181639062946776,
          0.2085063782514852,
          -0.21137726279386646,
          -0.4630929971786947,
          0.0817832203970118,
          -0.3219316653776951,
          -0.415454539858232,
          0.2554017456605988,
          -0.01756275269806594,
          -0.1038355886257906,
          -0.4359401037440708,
          -0.785689248887638,
          0.14473334222518977
        ],
        [
          0.3153666803558079,
          0.0904598866833398,
          0.7103814287959043,
          0.044847248333247276,
          0.34646366268893614,
          1.0955919301569597,
          -0.7388591037151085,
          0.8764243864126751,
          -0.08805225695754672,
          0.5264469004336082,
          0.30434027695684707,
          0.293411833288548,
          0.33969238459254303,
          -0.038178032756666314,
          -1.0381360691717314,
          0.22437685536900615
        ],
        [
          1.417569345854538,
          -0.08268452448766053,
          -0.6270943986169508,
          -0.36734136328348926,
          -0.24193956076101197,
          0.5219069910076165,
          -0.45436669792926065,
          -0.15247865668537008,
          0.5133221646603657,
          -0.3244629132877489,
          -0.14450988183604313,
          0.2326463696351886,
          0.09132830425938507,
          -0.6295302452646024,
          -0.5045884654310485,
          0.055156695883489815
        ],
        [
          0.008792823440625024,
          0.057249109767731884,
          0.44954819631930143,
          -0.11757495486191126,
          0.11703183865320999,
          0.8606990865629938,
          -0.2034351239191287,
          -0.06895336388787732,
          -0.015812241926620473,
          0.4767065113548929,
          -0.5382749637992851,
          0.18159980191697228,
          0.5957797153268151,
          0.4079583856351368,
          0.34801161685316656,
          0.2898604296661482
        ],
        [
          -0.38773390202470875,
          -0.015336287901429801,
          -0.0025016297850304864,
          0.12502140791203437,
          -0.3276226562729509,
          -0.9448203617032441,
          -0.4937189908370674,
          0.5665680336600277,
          0.013427286907067404,
          -0.02843864989705334,
          -0.1715437609079653,
          -0.5254771149097228,
          -0.5913469757414977,
          0.20218659180681436,
          -0.7303527449683394,
          -0.4919640566020671
        ],
        [
          0.6957745254194477,
          -0.16603592851245846,
          -0.31000179681193607,
          0.20417657007010767,
          -0.27388793160480135,
          -0.2016107719384746,
          -0.11526997214051243,
          -0.20897387050635374,
          0.3872331643940391,
          1.1247558571565384,
          0.10135365505422074,
          -0.4632841563011881,
          0.6825885930461194,
          -0.04408661734490693,
          -0.18121260652827573,
          0.17087274032963254
        ],
        [
          0.4275537493095254,
          0.16147655868227348,
          -0.02842115109880729,
          -0.40920575751518135,
          0.07220686128267452,
          -1.310850474674422,
          0.13173224842002051,
          0.04845767866343997,
          0.6365571369573039,
          0.09865018252519143,
          -1.223433407949837,
          0.5821616158564501,
          -0.44813002456472617,
          0.8239808385340944,
          -0.5285475269603966,
          0.1005197926493843
        ],
        [
          0.19173719041826456,
          -0.21981530537748045,
          -0.6237571942488462,
          0.0008180822821066899,
          0.7675704397056339,
          -0.6123301386780176,
          -0.753975196187532,
          -1.0061453185192681,
          -0.2861728936836558,
          0.039415342215489174,
          -0.26053157217354167,
          0.33007844098634787,
          -0.2169290508826051,
          0.7322761270611783,
          0.025204055989330152,
          1.0195484817591036
        ],
        [
          -0.04515146238201151,
          -0.3342888588158186,
          -0.018258088625044674,
          0.9390735483662704,
          0.4177868409091464,
          0.08645511216828397,
          -0.09039656907071644,
          -0.32756238952964134,
          -0.5193822113090157,
          -0.5883718429636688,
          0.2230420716668982,
          -0.1889441901233466,
          0.04538739521440449,
          -0.22994583807752544,
          0.30100437167568844,
          0.057395803760671514
        ],
        [
          0.0847744893555469,
          0.31405924361438275,
          -0.14651119070533555,
          -0.4110131661319495,
          0.24137258330097128,
          0.5112020892103676,
          -0.399613716949341,
          0.16229028220158262,
          -0.3250491686775366,
          0.4183854450508456,
          0.6326034249235912,
          0.060035682677783066,
          0.5380931005147653,
          0.4470605292127941,
          -0.08321296185154796,
          -0.5569470817200364
        ]
      ],
      "b1": [
        [
          -0.040336116828071436,
          -0.005560078630620174,
          0.007913911600950245,
          -0.003752334625015657,
          -0.02922534691042442,
          0.019091382660394087,
          0.0,
          -0.011114484539278784,
          0.018805989871882024,
          -0.01671623533514402,
          0.028519962938020393,
          -0.011661310362707681,
          0.007550952117541397,
          0.006134502642134201,
          0.0,
          -0.0057938507697339525
        ]
      ],
      "W2": [
        [
          -0.7013795282438363,
          -0.21261792201733465,
          0.40083135529072905,
          0.4262490880908692,
          0.5768428764902681,
          -0.6517302946117186,
          -0.07304741567962258,
          0.3922410611511127,
          0.2867032493170515,
          0.21724313261554606
        ],
        [
          -0.6784177348165522,
          0.06421340159722537,
          0.41692346703146016,
          -0.1994318480722763,
          0.1422130692677836,
          -0.06008367535129553,
          0.19853612393086384,
          -0.5289215534129259,
          0.27908507926243425,
          -0.5876460246756126
        ],
        [
          -0.15353731497417203,
          -0.04395958098085333,
          0.19539133597724365,
          0.3112236177740691,
          0.5174386146565328,
          0.49985063927334067,
          0.18014751844660348,
          -0.47728542652355466,
          0.29999509715029593,
          0.22555622371449555
        ],
        [
          0.3732779053366909,
          -0.26443197706081517,
          0.23324015629863554,
          0.22671041642075845,
          -0.02870650969387555,
          -0.032821664346131305,
          0.4362872364098971,
          0.330820117504911,
          0.33045582004832036,
          0.08116899415956963
        ],
        [
          -0.24553927554893518,
          0.2766699831957211,
          0.2588838472755491,
          0.10554006647419079,
          -0.08240380200986494,
          -0.29953642315019946,
          -0.4425244984790906,
          0.32411933204449506,
          0.6810722077849348,
          -0.8147049369755994
        ],
        [
          0.0580354837215647,
          0.2591710937642684,
          -0.0013001735082725945,
          -0.2210561342575315,
          -0.37032984236565314,
          -0.10906359375102394,
          -0.2560648161452502,
          -0.48909692814528855,
          -0.12325041780454318,
          0.07356873131947853
        ],
        [
          0.38551563321226273,
          -0.2894083333626411,
          0.4944834472080453,
          -0.28440664105722097,
          0.19726847440921205,
          0.03655648262178519,
          0.29265442927207175,
          -0.15751056318261028,
          0.001038030611113307,
          -0.03879875264452063
        ],
        [
          0.06436266389426695,
          -0.3534283035020611,
          -0.5030760854682478,
          -0.1738468230839341,
          0.6875573900849162,
          0.10650950250175975,
          -0.29009138925058403,
          0.20200944026733575,
          -0.4769335645959711,
          0.27152221672235616
        ],
        [
          -0.32326169498892393,
          0.2206933555464272,
          0.015773234980635733,
          0.172212199548448,
          0.016212766778923336,
          0.445065091490237,
          0.5746139244225967,
          -0.19214263600194292,
          0.15557023479659263,
          -0.21046781639916826
        ],
        [
          0.020541396793867087,
          0.7560305453594006,
          0.05344871668505336,
          -0.2169027160814667,
          0.009627945360815283,
          -0.09589942509971142,
          0.08117472504379142,
          0.12586204577337004,
          -0.1011173086770224,
          -0.2362972382466737
        ],
        [
          0.5015682625493941,
          0.3965629871437433,
          -0.1688742956542863,
          -0.23990070117012524,
          -0.03626839176875581,
          0.6131125320018767,
          -0.16488060168508192,
          -0.28984931965383287,
          -0.49315130203233704,
          0.4959948487291832
        ],
        [
          -0.6713927249750528,
          0.6098791865429452,
          -0.026131409742660084,
          -0.3530373225263614,
          -0.15379613043607962,
          -0.03729489344841114,
          0.018363407097137262,
          -0.19361671311402875,
          -0.37713087613510143,
          -0.4126369436272789
        ],
        [
          -0.031450346147557484,
          -0.055296218126132765,
          -0.03243292390509696,
          0.46685490101716387,
          -0.07070669064397804,
          0.7537911832946919,
          -0.29958246386434906,
          0.05931183113363117,
          -0.18598422677377713,
          -0.5625748602143671
        ],
        [
          0.5098428857492064,
          0.14975060095692858,
          -0.1833620821509917,
          -0.10982193898292335,
          0.041388128367628355,
          0.16253827857655764,
          -0.3072604273329217,
          0.43358091398274073,
          -0.6173074871029733,
          0.11873141446356704
        ],
        [
          0.5258802607856784,
          0.7435675502525106,
          -0.10230740445070588,
          0.25094390331281985,
          0.10298795288933472,
          0.4829848875173031,
          -0.26809022817726114,
          -0.0024658242814522015,
          -0.07225128374103582,
          0.4808888020774741
        ],
        [
          0.11119427739411354,
          -0.044415279445317216,
          -0.08376282664992747,
          -0.15504476029043007,
          0.44788686678799006,
          0.20782499116007297,
          -0.16918806295709274,
          0.3102202355616874,
          0.14150969289659404,
          0.15343460781620208
        ]
      ],
      "b2": [
        [
          0.003310078102915394,
          -0.020604221669147767,
          0.020178225289769994,
          -0.014915262161006153,
          -0.017629677115169086,
          0.03618901067502748,
          0.00858821664589392,
          -0.023088932680451642,
          -0.007790333733975112,
          0.015762896658438056
        ]
      ]
    },
    "pos_4": {
      "W1": [
        [
          0.495320788010293,
          0.15747181779614025,
          -0.4949532840263528,
          0.17031991319469825,
          -1.0108835376095533,
          -0.3994620521144704,
          -0.12607279747681258,
          0.3199534545245579,
          0.5469365471882545,
          -0.4979731673698752,
          -0.21649430985138463,
          0.12138417373967517,
          0.0602306217834295,
          0.2107050244226156,
          0.018088229654245457,
          -0.6726861348861589
        ],
        [
          -0.8407060124038693,
          -0.5448971167973418,
          1.1809308183077978,
          -0.35895609122883626,
          0.12496519664924548,
          0.10140458686044809,
          0.948924886705213,
          -0.3680185813071873,
          -0.8604910035704851,
          0.3880805782521017,
          -0.3793793584287128,
          -0.4964321950094358,
          0.05998334619834109,
          -0.25996371349809044,
          -0.48941199269057994,
          0.23934372083711303
        ],
        [
          0.4326119058685741,
          0.5711818918292153,
          -0.1672050591531818,
          1.030245040210513,
          0.1400277642864329,
          0.23425496945234558,
          -0.5152319880846207,
          -0.9118449460899266,
          -0.3757984349974467,
          -0.7134290298411001,
          -0.004125306764282571,
          -0.37589647217469857,
          -0.6654221116326923,
          0.5085623727971809,
          0.3513637361038178,
          0.5012141454206339
        ],
        [
          0.37093226042247635,
          -0.1642034777958954,
          0.13030367880930824,
          -0.07933796209826742,
          0.14920119285157732,
          -0.3979324864265951,
          -0.4521535087384504,
          0.1925552908250569,
          -0.4225127750908462,
          0.3829742059166059,
          -0.1559626002028497,
          -0.11365862025043337,
          0.7302238874814415,
          0.4048907954185349,
          0.002759752905735523,
          0.09657715353518846
        ],
        [
          -0.14927581204726603,
          0.4940149019199418,
          0.4776610258638753,
          0.39799636764115,
          -0.5804969007848557,
          -0.8756853776008607,
          0.3023240350637982,
          0.7768606317261875,
          -0.3815899083986211,
          -0.9887730726950688,
          -0.17000081098446823,
          0.3940414748190412,
          -0.05132953525340458,
          -0.35556285960546574,
          -0.04625173320765736,
          -0.4384642418784864
        ],
        [
          0.5801096632061341,
          -0.875040286314046,
          0.409557028018964,
          -0.18428326003388953,
          -0.8318550352591249,
          0.4303616568648633,
          -0.5650523808390278,
          0.5669438048975792,
          0.5243486284851422,
          -0.6073787026758285,
          -0.28628308363976124,
          -0.9386877197070724,
          0.1376750580757335,
          -0.3495442520093468,
          0.6586379514473372,
          0.2864831304442006
        ],
        [
          0.1416688582059307,
          -0.5894864305575888,
          -0.129863119692359,
          0.03218097800363334,
          -0.5259901024819463,
          0.038920224561313985,
          -0.36261775671588653,
          0.008068953507020271,
          -0.5280352149691819,
          0.5508186474788432,
          -0.22822805786940997,
          -0.03843845898947222,
          -0.2722178414847394,
          -0.6943719226087297,
          0.29121455566556304,
          -0.8083214868313935
        ],
        [
          0.12400984962729932,
          0.9888411632081151,
          -0.056089477495078026,
          0.306095266408254,
          0.14613550150656357,
          -0.9658374965430558,
          -0.18538426991965273,
          0.04842307871239599,
          0.5729765973552686,
          0.6026882279761873,
          0.08769872165319584,
          0.3098658694264857,
          0.15172791488247153,
          0.1632940159035904,
          0.0710824334346993,
          -0.01657705393506439
        ],
        [
          -0.16840551498195608,
          -0.12932254385467198,
          -0.41627075482233505,
          0.09027895888483374,
          0.5478159138066441,
          0.07468078648288688,
          0.16385527984888976,
          0.4595427989552457,
          0.2861382046160656,
          -0.16160315986009782,
          -0.006792162769575874,
          -0.5566678986898346,
          0.5766871720435724,
          0.07913438956772309,
          0.6577483803858295,
          0.11908362213301024
        ],
        [
          0.06873544671971321,
          -0.21939488730520162,
          -0.03428940930905107,
          -0.3799827856408251,
          -1.179003462380723,
          -0.5497128310389938,
          -0.4908477500921056,
          -0.09075540278636754,
          0.12427486734278223,
          -0.24934932680033733,
          0.41184301236455245,
          0.2780457259505335,
          -0.06813858644222755,
          -0.27131792585971576,
          -0.2157596442568798,
          0.4792734961114741
        ]
      ],
      "b1": [
        [
          -0.029559906014359646,
          -0.0068661268230059205,
          -0.004200063592291299,
          -0.0034955708243927393,
          -0.00017561024775303717,
          0.0,
          0.005418430745142527,
          -0.01967470716154903,
          0.0046574939064008124,
          -0.0016614066440359956,
          0.0013892763155922002,
          0.0008532809782294857,
          0.017524896274131955,
          0.00577532497960187,
          0.005380701428196419,
          -0.0003764559115620445
        ]
      ],
      "W2": [
        [
          0.7297007222538298,
          0.4715163435868739,
          0.2992208496968508,
          0.12731426113348665,
          -0.5185563832305976,
          -0.21321324594933758,
          0.04190185155526299,
          0.38849692886290965,
          -0.37978848230291923,
          -0.28617177957066425
        ],
        [
          0.5018779701145771,
          0.4793881689780871,
          -0.006736415140515723,
          -0.2889784766880761,
          -0.6909192591116285,
          0.1183798962360365,
          -0.5270175105808163,
          0.023021835222084862,
          0.5869688124362654,
          -0.4010864523993327
        ],
        [
          -0.05213841506677463,
          -0.5030524916821586,
          0.5516920413376472,
          0.21820505228349904,
          -0.49016271466962646,
          0.010371222474808805,
          -0.3339221306876347,
          0.5572366372756931,
          -0.3446033897383772,
          0.06555865382142839
        ],
        [
          0.2820210890381827,
          -0.22603834608760962,
          0.33897282649225596,
          -0.41838737559325734,
          0.4242872984242134,
          0.2963967436280341,
          -0.1271969183458066,
          -0.009988017841125576,
          0.4806899547736758,
          0.0442700795705492
        ],
        [
          -0.3047102907260996,
          0.266240441125888,
          -0.19432575615996006,
          0.016307901771216476,
          -0.29138985586816546,
          -0.18087522168137307,
          0.3652639766046635,
          -0.0834041050089742,
          -0.13123230926529367,
          0.14062221123849317
        ],
        [
          -0.4294618378499819,
          -0.21659587151185836,
          0.08512065591032725,
          -0.2123392289102454,
          0.40688683158198075,
          0.43622361468632653,
          -0.3938789548235209,
          -0.012942341293192402,
          0.2932822298445135,
          0.03714122802246225
        ],
        [
          -0.1717219032247788,
          -0.08190508917216507,
          -0.12784514132882593,
          -1.0411928776575614,
          -0.13261111242208162,
          -0.12388994367208762,
          0.0979873914593601,
          0.42928835486361,
          0.11500415238110183,
          0.04211021156191361
        ],
        [
          0.004380469041069089,
          0.21687436676103983,
          0.46861333120499754,
          -0.3316637368416593,
          -0.015689434420127057,
          0.3667912327983738,
          0.496367608451487,
          -0.8767858602072208,
          -0.026206521108499616,
          -0.010454644991749985
        ],
        [
          0.31944930971987107,
          -0.015964592724067004,
          -0.23100746203966172,
          0.05975393815563655,
          -0.45588421565518533,
          -0.18299272143364456,
          -0.2517247830939432,
          0.1382411442016578,
          -0.3602215406071207,
          -0.029436559246811593
        ],
        [
          0.06172785222878771,
          0.08008281096112846,
          0.5405001799619498,
          0.4747932735079024,
          -0.07264768522714316,
          0.07769091171641081,
          0.2910663193251089,
          -0.22232417608094784,
          -0.3616708089026941,
          -0.6465854883527049
        ],
        [
          -0.31194582970821455,
          0.47530171765653045,
          -0.08609570054437521,
          0.0652081028408344,
          0.18166017694367403,
          -0.23444061624531068,
          0.10181758216156993,
          0.2731261178115876,
          -0.5213958903073591,
          0.3573465810809974
        ],
        [
          0.585995678161081,
          0.3691020871732371,
          0.13101075481354751,
          0.33262002398520524,
          -0.37489287197191773,
          0.30323907981982573,
          0.22682833493952997,
          0.06661850247287052,
          -0.31403423793701946,
          -0.04987876767648825
        ],
        [
          0.30476428181623316,
          0.15788405848710627,
          -0.6053153103845322,
          0.4812910682740879,
          -0.08875680480943719,
          0.10344940391752828,
          0.11651315027050983,
          0.23240929880167166,
          0.5151768008536041,
          -0.16397023173320896
        ],
        [
          0.46622512449271397,
          -0.2451107577381973,
          -0.32650826029497465,
          0.20316959967359824,
          -0.3839862505824371,
          0.5141937382151249,
          -0.37418070444213414,
          0.0907706224945409,
          -0.44626950490709355,
          -0.046651904050237766
        ],
        [
          0.23417579694211652,
          -0.08171033918844452,
          0.4762977452441291,
          0.33728490688869395,
          0.32096148492803844,
          0.008411657585999398,
          0.24479706336806636,
          0.4336557198515874,
          -0.8000436468902677,
          0.6827367730313333
        ],
        [
          -0.03855992965557292,
          0.30643715673356675,
          -0.4623277642131147,
          0.21570498099354024,
          -0.16559718520548083,
          0.02584510078417451,
          0.3283290342520818,
          0.3186032976666258,
          0.6012372612051947,
          -0.253853922216717
        ]
      ],
      "b2": [
        [
          -0.013834291184962414,
          -0.0035118635347943933,
          -0.027736718394311147,
          -0.0001325936986224528,
          -0.00016127416818168441,
          0.013510070581695423,
          0.006895717241945269,
          0.00622126744243726,
          -0.00461537347261684,
          0.02336505919947603
        ]
      ]
    },
    "pos_5": {
      "W1": [
        [
          0.594680570472282,
          0.13934728442335337,
          0.41340121546730607,
          -0.7178862863497907,
          0.08242591982817347,
          -0.770565061850098,
          0.17700057812069458,
          0.9494726977619938,
          0.3299509545044854,
          0.138233351708298,
          0.864344237063654,
          -0.09266080340182153,
          -1.3675180867182688,
          -0.1281793757940453,
          0.8000100101711332,
          -0.010720843254756146
        ],
        [
          0.201668457375727,
          0.007627225521828062,
          0.3650218460221634,
          -0.1570329683097625,
          -0.43678629656594536,
          -0.392539686630279,
          -0.40235120063600416,
          0.03778004038038289,
          0.4060426813443025,
          -0.451031585371774,
          -0.38007756352950944,
          0.6681059526140924,
          -0.3805444788093378,
          0.3126735415867869,
          -0.5902027834068387,
          -0.44578085074871
        ],
        [
          -0.038879147897567794,
          -0.8702485034518117,
          0.4301779936332755,
          0.42761167171640335,
          0.17879848962721429,
          -0.14381505378134793,
          0.12501375700639558,
          0.5354927848418807,
          0.08738907426161915,
          0.1659277942688076,
          0.060977947759519896,
          0.4253193877634851,
          -0.40161091640868807,
          -0.01882662704725373,
          0.20315592169598576,
          -0.30535481850028323
        ],
        [
          -0.3554998306453142,
          1.03643638071221,
          0.23991328111963886,
          -0.13364893940877948,
          0.31623835313170257,
          0.21685630102968356,
          -0.6004631496543816,
          0.3407296816655546,
          0.08510966199841229,
          -0.7864572986724995,
          -0.24816020711039405,
          0.20421682547802644,
          0.4834102810163013,
          0.26805414580049614,
          -0.9337597086839748,
          0.1731417894059278
        ],
        [
          0.2442365673948849,
          0.9705935871995481,
          1.0491543594221588,
          -0.30986561691138936,
          -0.09389343098353177,
          0.04429878192607977,
          0.08534398416004174,
          0.29830479721266656,
          0.2229634249334156,
          -0.9285734765509353,
          0.2542825535320505,
          -0.20568403616077896,
          -0.39161084677051555,
          1.0058777054279293,
          -0.34834996369741644,
          -0.258356532013445
        ],
        [
          0.09679207048957528,
          -0.41661170219410826,
          0.030571575085897057,
          0.908655507640179,
          -0.5861903469541874,
          -0.3237352388963432,
          0.05822106615985985,
          0.6863809541182028,
          0.16899855800324162,
          0.19118876480593275,
          0.608186619304447,
          -0.2942183918753658,
          0.14659761039764152,
          -0.10232670005346349,
          -0.14792462334080217,
          -0.4018143501808701
        ],
        [
          -0.30216476711172197,
          -0.2099362517945167,
          0.10789283928747906,
          -0.47053122834567634,
          -0.38373597519578967,
          0.30131131432786007,
          0.007543487886487446,
          -0.3434596713739682,
          0.5789307429354389,
          0.2355512348055976,
          1.1167903937055494,
          -2.9539729656607937e-05,
          0.1923098015001533,
          0.12893349327209802,
          0.7198089349394219,
          -0.004742692773465626
        ],
        [
          -0.45453830096446524,
          -0.41365327078601355,
          0.5336510399950629,
          0.5462324667469042,
          -0.4171487233750379,
          -0.806929960862137,
          1.1714560282698572,
          0.33904644846994436,
          0.4045737321489537,
          -0.49552196101049284,
          -0.3216572347560718,
          0.19308062436678694,
          -0.5998784671494782,
          -0.3264727411572562,
          -0.031750423712518815,
          1.1124970760870974
        ],
        [
          0.32411013743047823,
          -0.09065498471691778,
          0.5140417883714562,
          0.28513668865706904,
          -0.39529029435235835,
          -0.5334120825246788,
          0.1054603872825193,
          -0.7542564151340398,
          0.6638293921977791,
          0.9731960963948824,
          -0.012467386137716696,
          0.5971897957254824,
          -0.30292211965798976,
          -0.18912539392523273,
          -0.9288713419644277,
          0.037774043620726304
        ],
        [
          -0.006101252911780239,
          0.45264005368822413,
          -0.33274678633651184,
          -0.20518906875796053,
          -0.1325594034704046,
          0.4073861958964087,
          -0.21011569645242437,
          -0.20668449751579845,
          0.04100264959440926,
          0.2763185797208234,
          -0.2242440019998824,
          0.5985075160155622,
          -0.431667415077196,
          -0.9870283270747446,
          -0.2281991019667102,
          -0.02322443077676072
        ]
      ],
      "b1": [
        [
          -0.021721171599836754,
          -0.0014138129338115769,
          -0.022309439081452182,
          -0.024163888882583907,
          0.0,
          0.0004933290528537799,
          -0.016833493064805187,
          -0.0007276396354975122,
          -0.014276481805346358,
          -0.020070278766566932,
          -0.027626097309470635,
          -0.02086014902117976,
          0.0006715057632065304,
          -0.0060280261479713345,
          0.007130244895253012,
          -0.015034560178377022
        ]
      ],
      "W2": [
        [
          0.3489895467225244,
          -0.3877334819089754,
          0.4294260437002589,
          0.2891472906015044,
          0.09877994055317332,
          -0.36627456786163876,
          0.5404145636955535,
          0.17753043810563238,
          0.30248262183702496,
          -0.25003559700781647
        ],
        [
          -0.5334304076770275,
          -0.18663528469418114,
          0.1403197661712062,
          0.14274746110937234,
          0.05724519173061982,
          0.2506820437796061,
          -0.07673508264032122,
          -0.02179233352329568,
          -0.310150161632372,
          -0.08322838192045097
        ],
        [
          -0.08279352791402968,
          -0.07930102168036586,
          -0.6129763116345199,
          0.4712150621341769,
          0.23689944471663202,
          0.38602252291713113,
          0.7283586333531088,
          0.007539677701482892,
          0.6986876319112978,
          0.6825168308667249
        ],
        [
          0.2043880297702801,
          0.7033847870365569,
          -0.5381908546599345,
          -0.6483460804908495,
          0.1861237302315825,
          0.05154919610385561,
          0.5024968490105823,
          -0.26347344710524695,
          -0.38539379276047114,
          0.29120224959478525
        ],
        [
          0.16100117898181715,
          0.6212014230284536,
          -0.015153898329933862,
          0.0007044799648359887,
          0.1609730578671057,
          0.40900748559548256,
          0.3647913337652416,
          -0.14571264688691576,
          0.42711692014842234,
          0.2464787177261896
        ],
        [
          -0.3704885141575532,
          0.34159592763776836,
          -0.02509960024720958,
          0.019832984130633106,
          0.5542042550967914,
          0.522032270600199,
          0.4488816354033059,
          -0.3655613853604322,
          -0.06296130018060363,
          -0.060337167450186704
        ],
        [
          0.5527141135459349,
          -0.02405860091071209,
          -0.10201300332123799,
          -0.39698221082138185,
          -0.6840460502067651,
          0.010834889432856855,
          0.1759096025672564,
          0.06223525514744331,
          -0.7921149106626668,
          0.18513930070531887
        ],
        [
          -0.10448742884608225,
          0.8339276531664899,
          -0.06723539363592032,
          -0.3240535456092673,
          -0.20753819139521873,
          0.761057179555106,
          -0.3941246641593696,
          0.028746181074926404,
          0.23646076625823026,
          0.42964316329437746
        ],
        [
          0.36453129412149565,
          0.09708258554161195,
          0.15528062838296153,
          0.28808554560160216,
          0.2783451195804709,
          0.13185306203780056,
          -0.25274002091456577,
          0.30089591080651545,
          -0.05778706239844353,
          -0.5374246008114237
        ],
        [
          -0.1129949779610667,
          0.29936579997999796,
          -0.008168333758685762,
          0.28583349307192146,
          0.8524471134043836,
          -0.13094296730227242,
          -0.02747054114439483,
          0.5169752615238039,
          -0.24288739398967196,
          0.5671784069584019
        ],
        [
          0.13239633702882947,
          0.46681158714056237,
          -0.41539628046307037,
          -0.07456806795779797,
          0.005339767834129763,
          0.837800125832519,
          -0.6575406215785231,
          0.02599718861518454,
          -0.0374662303746558,
          0.2679766882361408
        ],
        [
          0.7136454302618479,
          -0.7126996917278289,
          0.11396638002394249,
          0.08836022120558416,
          0.49540708327314276,
          -0.6048801050493984,
          -0.027607667948495576,
          0.36573785711527934,
          0.33644559619394876,
          -0.08448462864376287
        ],
        [
          -0.024913432869687165,
          0.3432189053213635,
          0.34462513586265864,
          -0.01998336878284946,
          -0.15692854540631107,
          -0.5408853906874829,
          0.38637635804811993,
          0.26945286741229324,
          0.44545183197460236,
          -0.07368780639999081
        ],
        [
          0.16701734784901415,
          -0.17073571621925784,
          -0.0470450955111346,
          0.08810443900621587,
          0.019394699021508737,
          0.057551774021711716,
          -0.22632656631899678,
          -0.25196999383171104,
          -0.6451017832409724,
          -0.21207809184803758
        ],
        [
          -0.2236301768747026,
          -0.6163512925900333,
          0.5783200335011756,
          -0.26971937589553047,
          -0.4054691601028454,
          -0.2945781519189745,
          0.13737843741470973,
          0.06570055242397506,
          0.6794281497800885,
          -0.12801376504443637
        ],
        [
          -0.3383294672802484,
          0.24114084390510687,
          0.14237536625152236,
          0.044823996369711426,
          -0.20892402998786738,
          0.41040633345738525,
          -0.7404123062506519,
          -0.00461752204491485,
          0.13048403176729984,
          0.6696530343331688
        ]
      ],
      "b2": [
        [
          -0.02434641067535798,
          0.016812217699610468,
          0.028987301879612896,
          -0.01119491541041844,
          0.0001607772537327201,
          -0.016927759178302408,
          0.011376022007432537,
          -0.005730512388645382,
          -0.0014642907801404696,
          0.0023275696051236476
        ]
      ]
    },
    "pos_6": {
      "W1": [
        [
          -0.11751440802314606,
          -0.027514299256069075,
          -1.738280891037579,
          -0.6381246531326474,
          0.30105302928084526,
          -0.21011301052570425,
          -0.4901865593807313,
          0.053919208575047894,
          0.6133918458572432,
          0.14651711824305658,
          -0.23985433708483264,
          0.13986058508103674,
          0.5903555521791152,
          0.26332056714679386,
          0.42547929721465694,
          -0.5162340200359947
        ],
        [
          -0.7980067681260878,
          -0.09937259919263618,
          -0.047619838129077295,
          0.026777747437077174,
          1.2235874426413695,
          0.13095064369088963,
          0.44747506568417117,
          -0.3514960520752377,
          0.1630008492062231,
          -0.10303821732465905,
          -0.32694699048680753,
          0.22104521076577507,
          0.36242656896065395,
          -1.1004503987700849,
          0.08815731801981776,
          0.021589068574524937
        ],
        [
          -0.06972342212949839,
          -0.3964633709331658,
          0.2462062424978255,
          0.49007562555644335,
          0.30785435418588303,
          -0.2842673652664831,
          0.1700988493043117,
          1.203267973592504,
          -0.745940465876805,
          0.031137479403589758,
          -0.22135725382725677,
          -0.38650002854183163,
          -0.9271597630364764,
          -0.45747774071431124,
          0.057202618941235975,
          -0.22579595893679508
        ],
        [
          0.3480955629138516,
          0.13341264852767246,
          -1.1270193528703554,
          -0.25752370541071773,
          -0.5226583740650462,
          -0.5622948901601932,
          -0.06997755401054492,
          0.25329783458375105,
          -0.20434295852054077,
          0.41170516216306047,
          0.21123589260767006,
          0.4507128803654112,
          0.8657870440545993,
          -0.25172122217919346,
          0.6007471915155619,
          0.35350636877708536
        ],
        [
          0.4443006671969858,
          -0.5830446014463313,
          0.2446219606506022,
          -0.1633700191864668,
          0.43830179706916483,
          -0.15398420432653234,
          -0.11146530670319905,
          -0.20517018935366604,
          -0.05275654735702174,
          0.2136464397630689,
          0.392955514735434,
          0.1906115934694636,
          -0.24999588928404035,
          0.4541178210607428,
          0.8887528998711007,
          0.5378439032191976
        ],
        [
          0.7322307782232136,
          -0.30198272079348026,
          0.4235604545377877,
          -0.19650223357211377,
          0.19945728123527354,
          -0.5629792965256267,
          0.6070953442936563,
          -0.09503259117973328,
          -0.050103237990203234,
          0.7218276334225107,
          -0.6290060902785498,
          0.0813647608553481,
          0.2912433763709369,
          0.23037903168874824,
          -0.04111391887778008,
          -0.4784615428896998
        ],
        [
          0.40038872160931305,
          -0.5484545635480529,
          0.21547996324896765,
          -0.3461445954582815,
          -0.29323566778271376,
          -0.9143052676278881,
          0.1481059620431254,
          -0.2156459248694952,
          0.01705823289428261,
          -0.015330233906776933,
          -0.5670908339802974,
          0.30568160881510353,
          -0.3429832240914688,
          -0.09419034999655336,
          -0.9549019275160798,
          0.23794782784808413
        ],
        [
          0.08012885531131804,
          0.15232319362563757,
          0.30158685891125464,
          -0.3822012812895292,
          0.3874281317812978,
          0.200834616560401,
          -0.2031114171060864,
          0.03664222168426164,
          -0.0673497230957952,
          0.17310323227996757,
          -0.04017015983743081,
          -0.9319351803779795,
          -0.3122695213286368,
          -0.31324153737518956,
          0.4937394174151392,
          0.8883121261444973
        ],
        [
          0.18739543343325055,
          -0.8015889808323761,
          -0.5165446898025815,
          -0.15956884404731614,
          0.47184704291730195,
          -0.4281675010120138,
          -0.08364320367813254,
          0.009443166620247974,
          -0.5972464901526084,
          -0.15500056568563308,
          0.03334563981982006,
          0.06190898457007015,
          0.028557019988064456,
          0.31784175314707874,
          -0.01968953376524815,
          -1.0534144595132422
        ],
        [
          -0.8338951347406895,
          -0.07872048147514957,
          0.7286073737983132,
          0.15861616508292017,
          0.2056776344682423,
          -0.09792687913289344,
          0.02460280916409542,
          -0.3066994791725063,
          -0.03543704848916534,
          0.052072317916724106,
          -0.604070220590614,
          0.06431098086281543,
          0.5091984873314906,
          0.04373898747862442,
          0.029270948978186658,
          0.34525526278293683
        ]
      ],
      "b1": [
        [
          -0.022912235803525787,
          0.0,
          0.018388148239509104,
          -0.0038455061737328734,
          -0.042247011458222204,
          4.538496053495003e-05,
          -0.011350590130913787,
          -0.02222524010181826,
          0.012978865827396439,
          -0.022436133251135644,
          0.0,
          -0.020942322349486734,
          0.0012248524555559552,
          -0.009472332466551802,
          -0.02433121775327275,
          -0.03755692997133152
        ]
      ],
      "W2": [
        [
          0.1155213986848049,
          0.22899662766629722,
          -0.33456630941965126,
          -0.25128618602623337,
          -0.39159132052380985,
          0.5831864278299191,
          0.7273152503940716,
          -0.3007244157374978,
          0.47263093765559694,
          0.11924408530122854
        ],
        [
          -0.23125268317424907,
          0.01707912491939791,
          0.0440375032008323,
          -0.2688205720642663,
          0.04993741006540858,
          0.36835190748397006,
          0.3028379869789358,
          -0.375490343362452,
          -0.11976874364883645,
          -0.6088054267030927
        ],
        [
          0.4029379429711523,
          0.19656116191908765,
          -0.16222296670828595,
          -0.3073996537808186,
          -0.28119660188350876,
          0.3513411304636861,
          0.17534526270911172,
          0.5076209078555511,
          0.05375478843426012,
          0.8092667528167009
        ],
        [
          0.585878788218412,
          -0.5914914470096064,
          0.09068486844804848,
          0.27012555915005304,
          0.12107662798262826,
          -0.25736659943807066,
          -0.009882398838881755,
          -0.20303018436882989,
          -0.08760653612481091,
          -0.38530549077985443
        ],
        [
          0.20905393284270335,
          0.5424641308074774,
          0.27034189062159725,
          0.2768923839997401,
          0.5989805140694114,
          0.3292724133477093,
          0.7859911655532658,
          -0.37470416421408,
          0.004772855432548849,
          0.11668460276994012
        ],
        [
          0.21308673747843743,
          0.06994858731293416,
          0.7226796028304261,
          -0.24701289089270126,
          -0.3498901240022401,
          0.04409123455348903,
          -0.27350998450889,
          0.009290254026557766,
          0.5643480514154503,
          0.2290507790608957
        ],
        [
          -0.28924903245798883,
          0.3261200079064752,
          0.17084264000813307,
          -0.32590125905966816,
          0.10081943328116111,
          0.22633521051845484,
          0.3136761443265157,
          -0.1533505768617794,
          0.3898738913205972,
          0.38258379780608576
        ],
        [
          -0.01513165005343574,
          -0.0953018116340022,
          0.01013533997820353,
          -0.15846677678348955,
          0.02630006759947462,
          -0.2705712085628911,
          -0.1406799493027424,
          -0.5006413116733798,
          0.43294956615131946,
          0.5208129210592508
        ],
        [
          0.6390755668595447,
          0.07327395555875271,
          -0.1656519541466943,
          -0.8624238456815057,
          0.18038136848947978,
          -0.6365659608376727,
          -0.17661138260333092,
          0.003026510545543674,
          0.3440139106311479,
          0.15234733689955984
        ],
        [
          -0.8809727325287453,
          0.3216865190933966,
          0.1644896889665756,
          -0.2758118802854109,
          0.004856713374785158,
          0.09936637164788542,
          -0.017334939174192203,
          0.1203609128037502,
          0.25476280194693773,
          0.7626331841056471
        ],
        [
          0.03783836108316215,
          0.28890790356749296,
          -0.193204840598039,
          0.24127675772386306,
          -0.22692802574279763,
          -0.42357206651110385,
          0.439845657949843,
          -0.1663577988190429,
          -0.6909975920057839,
          0.08959939253523136
        ],
        [
          -0.525850818382375,
          -0.22545300821230968,
          0.2078689138546694,
          0.39081838963906956,
          -0.33764074461697446,
          0.226796719691536,
          -0.13016470962054003,
          -0.07201188157794128,
          -0.021997051988765153,
          0.26095744647811675
        ],
        [
          0.045372909614033334,
          -0.09365660697433008,
          0.006710507072945489,
          0.17450965458220166,
          -0.2058026266721891,
          -0.3067466500769727,
          0.7170972069010192,
          0.3267290652317417,
          -0.24426473880831281,
          -0.7609338701723023
        ],
        [
          -0.574371111028948,
          0.33891784603481173,
          -0.007420027579960619,
          -0.17508695200154742,
          -0.3445276160254196,
          -0.5147075207612722,
          0.037976096881450504,
          0.2850848168774155,
          -0.41574682657521633,
          -0.20771365480607246
        ],
        [
          0.40920623700066205,
          -0.6079341870633422,
          0.6422471830452745,
          -0.22273084439413363,
          0.6885224908065846,
          -0.25429693110137563,
          0.18736682741789717,
          -0.07690213009371313,
          -0.5724924475543064,
          0.5022805010579494
        ],
        [
          -0.23589349114775088,
          0.0017578314155661807,
          0.4524810153659286,
          -0.43909781413235804,
          0.4753661721796295,
          -0.2857402787783865,
          -0.1199022442741302,
          -0.27393172102505053,
          0.8407193122799633,
          0.28230027921680123
        ]
      ],
      "b2": [
        [
          0.012445240894301181,
          -0.010375907444989911,
          -0.0173101286100759,
          0.014703793379443192,
          -0.012329367143107233,
          0.00036646792230544885,
          -0.01937629340079415,
          0.040014324483538935,
          -0.0012293587427837725,
          -0.006908771325104313
        ]
      ]
    }
  },
  "epochs_trained": 100,
  "learning_rate": 0.01,
  "game_name": "spiel77",
  "num_digits": 7,
  "last_updated": "2025-12-20T21:25:52.235392"
}