{
  "weights": {
    "pos_0": {
      "W1": [
        [
          0.1123263947030905,
          0.19424899330906578,
          -0.5375713939532787,
          0.3464118692898007,
          0.28798193574295733,
          0.05019602897259521,
          -0.7470183415597479,
          0.28445096608292103,
          -0.3261974985525652,
          0.286329155704235,
          -0.5667932303177247,
          0.42590175555596343,
          0.6032757254087536,
          -0.22378631439788618,
          0.2431101180368895,
          -0.5045659395769088
        ],
        [
          -0.06365043765121127,
          -0.4913592834115598,
          -0.6216085647368972,
          0.2822151757165448,
          -0.026100548422010074,
          0.20424620087652393,
          -0.026428509820711522,
          0.06865873470453995,
          0.2226476415022909,
          0.3095152517980671,
          -0.55782793435939,
          -0.07247345085755538,
          -0.6764474653354475,
          -0.3825138172666109,
          0.334733581803453,
          -0.23202145685745793
        ],
        [
          -0.2005613722319605,
          0.12484330403451513,
          0.13603731650895332,
          -0.24212795822487748,
          -0.20848089845298126,
          -0.3719412211908638,
          -0.13453610881321476,
          0.5591497877134153,
          -0.6557078039434687,
          0.11691349058294967,
          0.03323442610600839,
          0.3245342571789292,
          0.18970517991790964,
          0.1886282173137114,
          -0.3074171164411443,
          -0.26042879912410444
        ],
        [
          -0.34815127790993977,
          -0.6317436167554361,
          1.0179936944201473,
          0.3217460709033792,
          0.637718881134494,
          -0.030612342466055,
          -0.4717695212034009,
          0.5767327931767974,
          0.18082324845774553,
          0.48937626643682886,
          -0.24547742678067375,
          -0.8410902444148026,
          0.3366150943508792,
          0.13647901094194287,
          0.013372953695794748,
          -0.2981757348937113
        ],
        [
          0.5381425191707206,
          -0.6363210430496252,
          0.3650774752522747,
          0.8445193221802282,
          -0.13360351230609596,
          0.5353151748761465,
          -0.4547216839537135,
          0.12557773104867037,
          -0.45723826307946597,
          -0.5916319968801861,
          -0.5236180087857587,
          -0.4237918687543414,
          -0.0736864571351098,
          -0.07911271203228235,
          0.07953914298892671,
          -0.3308894125242293
        ],
        [
          0.21780220533363642,
          -0.46654305116598205,
          0.0026730384429039635,
          -0.28367376961180096,
          -0.33709410587686417,
          0.9863356302776283,
          -0.1949329240899543,
          -0.16640700103438621,
          -0.17978642308055773,
          -1.1854350730167074,
          0.2778167205365371,
          -0.3520345661979391,
          0.5079820654323661,
          0.5248633785657448,
          0.08946516947878777,
          0.6338224723495528
        ],
        [
          -0.16572742586261208,
          -0.4684416303953439,
          -0.6010046752714667,
          -0.36746715978517774,
          1.1429826221716195,
          -0.125828033256351,
          -0.35328386588085736,
          0.27053418517528094,
          0.1852990184342108,
          -0.81819032931673,
          -0.19113445053149358,
          -0.12485665689443788,
          -0.3198982872366347,
          0.8372811947081685,
          0.30242111374861724,
          0.6838564997181681
        ],
        [
          0.4177437772630717,
          0.08207068354769115,
          -0.42362265180391345,
          -0.9094283905774786,
          0.19773938525423218,
          -0.8556904988128167,
          0.11022623851954003,
          0.3276762289636157,
          -0.006820539224816544,
          1.519345481970747,
          0.724405406935391,
          0.32962401224223215,
          0.6047204003623355,
          -0.07686519706755604,
          0.14884094951884858,
          -0.08142596296240118
        ],
        [
          0.1681836196318489,
          0.6077599421996986,
          0.05445827177062855,
          0.13711335870425453,
          0.10630563543128126,
          0.08456531258223679,
          -0.1312348206100998,
          0.041207321323115755,
          0.16241372323154102,
          -0.5212168129037974,
          0.1781655093347331,
          0.7622731835825478,
          0.23573081414403488,
          -0.7535998309395082,
          0.13534374842109045,
          -0.20011239956865448
        ],
        [
          0.24432927144026145,
          -0.4465598837192948,
          -0.4596358777763302,
          -0.6068947054567475,
          1.089237151167699,
          0.274133130749551,
          0.11239334041828113,
          -0.1563688407825155,
          0.06893420802700695,
          0.005704240814973712,
          0.2732224460833449,
          -0.5724091718685298,
          0.20792172044610122,
          -0.19982204838623369,
          -0.7360656761974427,
          0.226845030577478
        ]
      ],
      "b1": [
        [
          -0.008904582756279774,
          0.002729651796496353,
          0.007040178037408112,
          0.010593026863622542,
          -0.014884847588981094,
          0.00015770717432259557,
          0.0,
          0.003998343753010345,
          -0.011363132751636097,
          -0.009272625045409419,
          0.0026309755423279714,
          -0.0008076695963468728,
          -0.002102239214262784,
          -0.007044021453184736,
          0.005255742675622904,
          -0.005073788381733402
        ]
      ],
      "W2": [
        [
          -0.3083929683055341,
          -0.16772009713942695,
          0.1409176032667277,
          0.35184272352586243,
          -0.4995069007395217,
          -0.025905462717418334,
          -0.42020272285066557,
          0.4725069965951618,
          0.10090207879433027,
          0.7764536413789124
        ],
        [
          0.01145974968204392,
          -0.16289383024114062,
          0.4543267635591794,
          0.5148986002635159,
          0.42397447783940667,
          -0.2132450072150194,
          0.08024947036658087,
          -0.0887644237649748,
          0.07890372382320769,
          -0.11386658369353571
        ],
        [
          -0.18974651602312248,
          0.2626706105735843,
          -0.389911758688799,
          0.1359687918983336,
          0.596450956038625,
          -0.27980961187590286,
          -0.15512628086161365,
          -0.5051429752340001,
          -0.4644827225019235,
          0.03901487220947437
        ],
        [
          0.18817263377681798,
          -0.0634352219283227,
          0.2812655572766788,
          0.4207236866933075,
          -0.5497167498586552,
          -0.20341767577291806,
          0.2219516698837574,
          -0.2618146582476576,
          -0.06019033028934486,
          -0.06424703357807082
        ],
        [
          0.23840082470880045,
          -0.08432095595859189,
          0.6340980928103302,
          0.158968503296572,
          0.31444497004127,
          -0.35776996850959314,
          -0.12805496066072697,
          -0.25798362753998344,
          0.05209662864355261,
          0.438363899089758
        ],
        [
          -0.4074707325607136,
          -0.0010690783917903404,
          -0.14616413182085472,
          -0.5410026046538899,
          0.1297751942459127,
          0.1124178015367733,
          -0.20125176547888973,
          -0.324504019304719,
          0.11592680950233977,
          0.6752899127400459
        ],
        [
          -0.022661404708488927,
          0.11995075099061997,
          -0.043449305488384736,
          0.2668169510895613,
          -0.1199132099220008,
          0.5545505662542967,
          -0.16442755245374546,
          -0.5185870612481323,
          0.19038396005118063,
          -0.5468644697407788
        ],
        [
          -0.1651964843866688,
          0.44303848148678154,
          0.12132265608057317,
          -0.5434624691030777,
          -0.46728811652330887,
          0.6513235460315016,
          -0.2873609300092397,
          0.12079986998703174,
          0.006268493431795663,
          -0.7357007775245993
        ],
        [
          -0.1407730992238071,
          -0.6424614623082693,
          0.6414504771945867,
          -0.0321234205858336,
          -0.15943134428709063,
          0.028593208936323406,
          0.1566473142706305,
          0.33171283905691173,
          -0.25136066468646623,
          -0.47205525383517305
        ],
        [
          -0.3220714725802092,
          -0.1308061658811304,
          0.13297112852495468,
          0.11066515194975135,
          0.2080985360042152,
          -0.18519188663023217,
          -0.016863583693000866,
          0.15559906376146,
          0.23445850928787595,
          -0.16796030086446032
        ],
        [
          0.33347129649243595,
          0.041718714511050914,
          0.4679621549458256,
          0.34179063774545315,
          0.006047038983327576,
          -0.46841113634350307,
          0.05052965796982602,
          0.38218695929038926,
          0.37265017469612083,
          -0.14092560467031492
        ],
        [
          -0.013051418969679814,
          0.6448034621748554,
          0.20633238663054604,
          0.448846953015947,
          0.31907941224473657,
          -0.06669583047339948,
          0.999073601568909,
          0.008619336327657299,
          0.30097444375418647,
          0.4482327753745985
        ],
        [
          0.5228811981658331,
          -0.26028432050962375,
          -0.384842294479286,
          -0.34540619270235157,
          0.46379350981735373,
          0.2934916731383416,
          -0.22292700762415438,
          0.47501890675539893,
          -0.30383059839287524,
          -0.16091592339046087
        ],
        [
          -0.25359496334759113,
          0.2935698805165683,
          -0.4647324134690185,
          -0.019017395419534833,
          -0.31651320701637153,
          0.21870209679801994,
          -0.46532912066450477,
          0.295849817265284,
          -0.2723624122506209,
          -0.0079961791657416
        ],
        [
          0.38503493868478605,
          0.30935588463365515,
          0.045393127610656045,
          0.033557193138420274,
          0.23296864920979726,
          -0.4038663090816783,
          0.08148058676649314,
          0.3783192584255194,
          0.6998767384744233,
          -0.44111133088599236
        ],
        [
          0.05324134223443866,
          -0.11948486067767211,
          0.051586273241321444,
          0.058850558328551475,
          0.33291550522661445,
          0.013501326480389115,
          0.005495473455333973,
          0.05307877931771225,
          0.2708466033943143,
          -0.07318851501822393
        ]
      ],
      "b2": [
        [
          0.02145552833195919,
          -0.001396414198207926,
          -0.012224610029350907,
          0.010963300078429704,
          -0.02463205528914938,
          0.008649431863433229,
          0.017662386335206774,
          -0.00985247908523531,
          -0.003857945036788117,
          -0.0067671429585748405
        ]
      ]
    },
    "pos_1": {
      "W1": [
        [
          0.3961791405171637,
          0.1582678347141032,
          -0.3851079572149158,
          0.5106424877702133,
          -0.19072978459435114,
          -0.10741613838663616,
          -0.6805021701482081,
          -0.5163408512048998,
          -0.3347893852614731,
          -0.5076416859990287,
          -0.1926064981874694,
          0.30757415145166994,
          -0.40335118069134895,
          -0.13102566429920298,
          -0.32930210086283696,
          -0.3617819622247803
        ],
        [
          0.048593743858896414,
          0.35023199900415486,
          0.03747693763995743,
          -0.11983951795444148,
          0.8537376183778164,
          -1.0168463025473542,
          -0.5197841354296112,
          -1.0478427553705059,
          -0.39677539083828184,
          0.44124206783480613,
          -0.33845489875670065,
          -0.34632333307295887,
          0.7051314443263672,
          -0.1366669557287359,
          0.6272098499535124,
          -0.2587486536543843
        ],
        [
          -0.22809685086614873,
          -1.0731722992340815,
          -0.21097384986963919,
          0.5747920244472791,
          -0.19722236963950776,
          -0.00040692024968960955,
          0.2985301314334872,
          0.48330169175147125,
          0.32977179532655393,
          0.19893510857102262,
          -0.14984147478090434,
          -0.013382687795077305,
          -0.42115748330546104,
          0.4006841144001318,
          1.0717312511834942,
          -0.07316335675620525
        ],
        [
          0.01998598760445662,
          -0.5752887611839383,
          -0.6740491810015387,
          0.25924653182183344,
          -0.1123623959782513,
          0.043934354159608065,
          -0.7833117937935528,
          -0.38867870494409734,
          0.08758167277960612,
          -0.2421830269990326,
          0.16063684392542152,
          -0.7050108016393457,
          0.7194773072999581,
          -0.7159909627171505,
          0.03803537384384114,
          0.31491466710950916
        ],
        [
          -0.07120354192037465,
          0.18660271765370992,
          0.7272462872652928,
          -0.7746299757288986,
          0.4060458243497253,
          -0.4241225387548438,
          -0.11321499115965503,
          -0.21820070659476798,
          0.2764430864629974,
          -0.7358930890471167,
          0.1760381991875759,
          0.6673826483687774,
          -0.9252577449876506,
          -0.6664331769225859,
          0.4526120543507943,
          0.3021582987641168
        ],
        [
          -0.3234275687426699,
          -0.07143193426334149,
          0.41652069923205476,
          0.18227236882061548,
          0.3140074496060876,
          0.07753569408969566,
          -0.8096304200954718,
          -0.2851837633577781,
          0.23314919634653844,
          -0.056384437302292756,
          -0.10817384841049237,
          -0.42469697164652964,
          0.3213514555469971,
          -0.061791254586176826,
          -0.2711616953315023,
          -0.18968379541537772
        ],
        [
          -0.26564169565448337,
          -0.8838458995594266,
          -0.22207954407572877,
          0.3309305590996762,
          -0.05565649478287895,
          0.2016964179049928,
          -0.5725144689418861,
          -0.13269709404937186,
          -0.22364681340232231,
          -0.707980297718653,
          -0.10189444075197827,
          -0.18578480505042536,
          0.23607336744760435,
          0.15212989775410513,
          -0.31197775679741446,
          -0.649768003895269
        ],
        [
          0.6867184291010288,
          0.6917357602896087,
          0.30723452796244066,
          -0.34024191548497607,
          0.9312467538699805,
          -0.37036659495146784,
          0.35283163218762736,
          -0.18485046709409161,
          -0.042461263161230174,
          0.18794260987945433,
          0.1337700607963738,
          0.1524857988741486,
          0.1296515618259217,
          -0.2110498128243016,
          -0.20578060482675875,
          -0.3516522769098556
        ],
        [
          -0.1421316422943623,
          -0.22289732848365243,
          0.29585642015184704,
          -0.526328879346246,
          0.029681542136667374,
          0.3020195924831413,
          0.4463840870217002,
          0.13663872540966976,
          -0.21046510579340827,
          -0.6815419078436953,
          -0.06965016967753376,
          -0.06551821269744713,
          -0.12788338594923812,
          -0.6284584635165457,
          -0.03369657509924438,
          -0.6600156673317669
        ],
        [
          -0.5225472228521068,
          -0.434390651404255,
          -0.8822741962805446,
          -0.13983543788000205,
          -0.23566059433920758,
          0.8533945387667888,
          0.2279581095914959,
          0.6187276453730094,
          -0.5978856537373614,
          -0.26501877922651546,
          0.3738789846097105,
          -0.4377150196811437,
          0.36534742291422007,
          -0.7125974904449007,
          -0.4341078068148593,
          -0.5895826233589788
        ]
      ],
      "b1": [
        [
          0.0043890008946716194,
          0.0017026990604403105,
          -0.01674192046264272,
          -0.007724047614801062,
          0.013287342449600198,
          -0.00594931425025547,
          -0.0033374835221169226,
          -0.002689228677357634,
          -0.007425971455352369,
          -0.0007493481320647853,
          0.0068139518032424495,
          0.00878752003800991,
          -0.015237203819423116,
          0.0,
          -0.009141790357287944,
          0.0019559465636053036
        ]
      ],
      "W2": [
        [
          0.33199085781225324,
          0.5122695136480846,
          -0.34088292596152026,
          -0.20926299602732096,
          0.3418561428409056,
          -0.27334236145069296,
          -0.5426261002980206,
          0.13918541620698746,
          0.07895794513535208,
          0.40718922515220607
        ],
        [
          0.5567707319029765,
          0.08767730999078803,
          0.03624406417687582,
          -0.35132534063741283,
          -0.3925872974802289,
          -0.0019116591412891716,
          0.4266230912738051,
          -0.07711506750897819,
          0.13917273906976252,
          0.43826424012090737
        ],
        [
          -0.9865365396917618,
          -0.07246084784167889,
          0.2989395241826484,
          0.18043916558636017,
          -0.15747191973684294,
          0.21534166235421667,
          0.2911711620801212,
          0.013620846587512808,
          0.42304668110754823,
          0.5956520213697409
        ],
        [
          -0.3096592969064215,
          0.09539346766536072,
          -0.3071026722572029,
          -0.04863303883140965,
          -0.46199085903422216,
          -0.17485207433315253,
          0.18115038766394623,
          -0.24246818873536655,
          0.5607592634319856,
          -0.009536849068493787
        ],
        [
          0.40902204842018525,
          -0.23084865121757114,
          -0.0454034005031933,
          -0.07750120171867982,
          0.3440399357406019,
          0.6518423772441407,
          -0.18514772426619489,
          -0.04096737647479687,
          -0.3607454573114472,
          -0.04267357094221064
        ],
        [
          -0.21683839597699509,
          -0.41698889523079885,
          -0.10397894610614843,
          0.1980028985361709,
          0.29821190642999873,
          -0.26178599319839485,
          -0.28560590595406066,
          -0.048196950238180256,
          -0.5065365141562505,
          -0.4400154667061248
        ],
        [
          -0.21284826909203913,
          0.3749259628687729,
          -0.22114302692733545,
          0.20203975399758442,
          0.20645177903227596,
          -0.43465111821181224,
          -0.560261753310789,
          -0.5075871901839167,
          -0.03355097309102249,
          0.11060071621583482
        ],
        [
          -0.3594342669785757,
          -0.06781833806193666,
          -0.5033721461747471,
          0.4059944066589446,
          -0.12374768625284698,
          -0.011316922432885646,
          0.4149492207892553,
          -0.3003851397496529,
          -0.17014650499908107,
          0.11160614217361223
        ],
        [
          0.05899991246708961,
          -0.10999882415908267,
          0.04539442068250939,
          -0.08424020628005095,
          -0.3784922537737854,
          -0.3711846686309451,
          -0.4033079867457446,
          -0.32455597670363695,
          0.26305000728952305,
          0.5991759192911265
        ],
        [
          0.023838854504645447,
          -0.42730830190508057,
          0.2963551013864284,
          -0.22848352938327318,
          0.37081026002011347,
          0.1984252164981188,
          0.026286203622102558,
          -0.41234523509206605,
          -0.33351961973436584,
          0.026866305578063125
        ],
        [
          0.5200304073002835,
          -0.44427256117316805,
          0.1840654960949332,
          0.24102881818325686,
          0.3088772795566898,
          -0.20614239244303745,
          -0.31091516938728,
          -0.0728108398555506,
          0.10922630977835637,
          -0.30571314132760496
        ],
        [
          -0.28898184968155843,
          -0.44021430524251487,
          0.7109076283863963,
          -0.12383386321729832,
          0.0510326923676038,
          0.12000351577084895,
          0.12378674144403923,
          0.06775213053549695,
          0.1273194479812821,
          -0.5623218075291522
        ],
        [
          -0.14535277189663448,
          0.5546517612720132,
          0.19395436702046354,
          -0.32977783633248525,
          -0.280038483165302,
          -0.3834611743987479,
          0.05011448304779589,
          0.3563220346321084,
          0.6263241444152794,
          0.06231080811295658
        ],
        [
          -0.05933018774522729,
          0.2939051597020542,
          0.18561253107635656,
          -0.33487932661654657,
          -0.15336060660356368,
          -0.06540525119126706,
          -0.3089555753794761,
          -0.14562101008557257,
          -0.9217540759946918,
          -0.04550055556234062
        ],
        [
          -0.19419483365471013,
          0.17679603397672278,
          0.5652925743110246,
          -0.014515123306323251,
          -0.8076180023648595,
          0.0005298216313108346,
          0.4654046498486085,
          -0.37795782494637664,
          0.09775403084349804,
          -0.3530925412007348
        ],
        [
          0.43234590572683373,
          -0.2544210866551689,
          0.6916793258269984,
          -0.2637427502524203,
          0.48513162284425515,
          0.5013184640314229,
          0.44917956824734817,
          -0.599638202064133,
          -0.42834759485933077,
          -0.017623673363720345
        ]
      ],
      "b2": [
        [
          -0.0050754013073399315,
          -0.01506514369803412,
          0.0007010126818743416,
          0.021046839895898173,
          0.003549420641350568,
          0.0100636627055077,
          -0.01677418470430597,
          -0.001267776840333894,
          -0.008835534814896333,
          0.011657105451394461
        ]
      ]
    },
    "pos_2": {
      "W1": [
        [
          0.2768374358943326,
          0.09517933414612036,
          0.7023868284482916,
          0.5335788445185585,
          -1.7824389805332888,
          -0.5866081156771608,
          0.6458926221206256,
          -0.3395684021978949,
          -0.09182680007309907,
          0.8018756293155483,
          0.16766713778154044,
          -0.5725526978833162,
          0.2713675051474514,
          0.17712899236390603,
          0.4496020844365651,
          0.5460726145513707
        ],
        [
          -0.34330086727465753,
          -0.11661933138560383,
          0.8335440555213743,
          0.06199595759600233,
          -0.43214486846712585,
          -0.47374529247021424,
          0.057407025469327494,
          0.6663212481316212,
          -0.07554366913764175,
          -0.7623745619872035,
          0.04368090358520618,
          0.16286213537509608,
          0.21289136643890413,
          0.8927270635320393,
          -0.6050747566612266,
          -0.16203177669437674
        ],
        [
          0.1553401550803877,
          -0.25485779316965473,
          0.2274499316553146,
          0.10918218331334306,
          -0.3475027469005871,
          -0.2845815182689911,
          0.02491998014683688,
          -0.15200240386486114,
          -0.3571654167247557,
          0.028812687499142984,
          0.44383489344170546,
          0.007010697959565284,
          0.21241186798795214,
          -0.11374134777506964,
          -0.044469227338686676,
          0.056089449863039195
        ],
        [
          -0.1529207687026476,
          0.7199630195106561,
          -0.30166056758442145,
          0.5476851984517778,
          0.2265104319815777,
          0.06479153417574779,
          -0.2013540984280279,
          0.05123934589633936,
          -0.46482851710803397,
          0.2512890972028992,
          0.05846544073629042,
          0.746405921726749,
          0.5447556943996391,
          0.34980644776217273,
          -0.012909759371956198,
          0.18111424355743938
        ],
        [
          0.15510846743127846,
          -0.7792248462341447,
          1.0677658661969145,
          -0.10432825092913149,
          0.9292043210499443,
          0.0901133624975558,
          0.4990955778238401,
          0.22534203998596675,
          0.20729160155024953,
          -0.9140409936850629,
          -0.9514319776841745,
          0.2693204576813207,
          -0.273198584057015,
          0.46112800327140613,
          0.4793778539331679,
          -0.6468229181039025
        ],
        [
          0.4869104284112358,
          0.2723445444005853,
          -0.0842704952498077,
          -0.42774309278102646,
          0.3016332554229634,
          0.4452586820711456,
          -0.03766623342356234,
          -0.035486237706175684,
          0.5681447565646148,
          -0.21211794352257143,
          0.4380328895238231,
          -0.5849719707067411,
          -0.06230354030267505,
          0.11431819903848045,
          0.06978768662565868,
          -1.1104699082816343
        ],
        [
          0.6957159650251539,
          -0.13374855420707113,
          -0.1012988717448326,
          0.19116287293120515,
          -0.27645210522351676,
          -0.769685948991812,
          -0.0668973500371873,
          -0.08020526931348865,
          0.18720093064271864,
          -0.023254043520437563,
          0.40339139245935557,
          -0.07619417386409658,
          -0.2305307235223073,
          -0.31859132723736067,
          0.5015519697284133,
          -0.22742090128252568
        ],
        [
          0.1513407175174821,
          -0.1644439972601053,
          -0.27114348920572007,
          -0.4237842579052023,
          -0.26058049692062135,
          0.3108314446522564,
          0.47495975151810055,
          0.6616800511066699,
          0.25159096802645053,
          -0.3115561189672936,
          0.23556663525345525,
          0.0968048901522014,
          0.5607086353717331,
          -0.21159361422410583,
          0.7040609768324976,
          0.3368648944805534
        ],
        [
          -0.3462522086621493,
          0.7233341257745178,
          -0.5481278867779001,
          0.3997338865023768,
          -0.07276080971555403,
          -0.3281380127769773,
          0.2263356071911083,
          -0.66623962356937,
          0.024607194034473867,
          -0.18291435493810895,
          -0.47828296867076475,
          -0.8689976820410857,
          0.21709528314512655,
          0.35087871712818725,
          -0.775727184467718,
          -0.2939032144720376
        ],
        [
          0.29777153861901323,
          -0.3638038607683971,
          0.1362571396761032,
          -0.8462782386188423,
          -0.8284365004925773,
          -0.45288731382925895,
          0.5073871843707624,
          -0.10852916744155455,
          -0.700007280402012,
          -0.3144666766923883,
          -0.2731860173146291,
          -0.7262310207096961,
          -0.7900652916411546,
          0.2958549949134572,
          -0.13279105114091336,
          1.1326269124092418
        ]
      ],
      "b1": [
        [
          0.005403868500607906,
          -0.014442062821642909,
          -0.0037300672033215567,
          0.012512928559631273,
          -0.0029458235318742033,
          0.0009306048081983921,
          -0.001331607530980446,
          0.02208106166228158,
          -0.01853811660659799,
          0.0045313177804740855,
          -0.006339011073045511,
          0.001645566704688607,
          -0.02952501356106285,
          0.008311979536644896,
          -0.004182579965018209,
          0.002576334742739945
        ]
      ],
      "W2": [
        [
          0.03555860301731123,
          -0.10597784373211251,
          0.25742584817161085,
          0.35034990906132796,
          -0.02526700536888118,
          0.27092822757833823,
          -0.15205307740672355,
          0.0801249337243061,
          0.2733717996268006,
          0.21782124104417835
        ],
        [
          1.1320449800075896,
          -0.02092225619575765,
          0.08084972962225159,
          -0.5464277146396872,
          0.19962877627288592,
          -0.05960798340531044,
          0.43104703080985063,
          -0.309721831700846,
          0.36083568395844823,
          0.43064707242219336
        ],
        [
          0.38524239937190496,
          0.11067720594306263,
          0.8437248017976238,
          -0.193589876044986,
          0.2663741070229057,
          -0.6147388278880194,
          -0.17101160882243996,
          -0.2011485541165861,
          0.1477596291522401,
          -0.37153735419877626
        ],
        [
          -0.08020160738470965,
          -0.2765479886230121,
          0.012512284511089058,
          0.07886548107181797,
          0.11223137619184013,
          0.21751586998239208,
          0.4714007869474287,
          -0.5215348627210818,
          0.0732632719701652,
          -0.1648347669083824
        ],
        [
          0.3417796072062641,
          -0.26442671485146585,
          -0.067645241538298,
          -0.8452121784518021,
          0.20904142564883496,
          0.21722454429451812,
          0.0025784407661408127,
          0.045156957250544576,
          0.31082118219694876,
          0.15625570351234638
        ],
        [
          -0.03340936659944088,
          -1.0342088213874792,
          0.8498870233223175,
          -0.5181217644085391,
          -0.30290051312358296,
          0.18754400958100226,
          0.09314086747602429,
          -0.15196221343230945,
          0.13348344664089545,
          0.20146059699545926
        ],
        [
          -0.21731371649655598,
          0.16227451613684632,
          0.09925327673758924,
          0.1824386384394579,
          -0.2362218120384687,
          -0.06389724459671792,
          -0.07009074277452253,
          1.1336816719469696,
          -0.45873922526725663,
          0.3256078863585762
        ],
        [
          0.15189930429092113,
          0.2525886563551391,
          -0.3598546057956859,
          0.425583847275552,
          -0.26792651931220074,
          0.2021131282804857,
          0.25465295790687487,
          0.6137970857496139,
          -0.7492320776239902,
          -0.4075562919283636
        ],
        [
          0.2052499722896929,
          0.6257769646170369,
          0.33076395556403143,
          -0.484988286314786,
          -0.04127816552191257,
          0.00328351328191505,
          0.22358902873927922,
          -0.31627032973733005,
          0.1855109153521263,
          0.4725862991429125
        ],
        [
          0.30695399668884826,
          0.09828810001114124,
          0.3496839907882868,
          -0.2110481424152833,
          0.49025639665328063,
          -0.412007330902669,
          0.6071088263250912,
          0.5038213145751907,
          0.0661695276763624,
          -0.1174771924279644
        ],
        [
          0.40060554425747874,
          -0.08354426939465887,
          -0.021590269411553523,
          -0.29866332921452476,
          0.41066572670605916,
          -0.004933445081244932,
          0.017408313962365054,
          -0.085108164633125,
          -0.4019641715892975,
          -0.24426382311580772
        ],
        [
          -0.2901813044847324,
          -0.28926764899572766,
          0.1720712382131493,
          -0.770413032971909,
          0.28383015333162737,
          0.18721005554362455,
          -0.01799353161624727,
          0.14263620395109305,
          -0.40272396415624045,
          -0.24196300726815229
        ],
        [
          -0.21865620767773156,
          0.8039982988581789,
          0.06746562352697201,
          -0.373559915527446,
          -0.17000393868110755,
          -0.15264106266071217,
          0.3796238098670168,
          -0.028508622625906598,
          0.47222522734136424,
          0.38984706290898735
        ],
        [
          -0.2502181457052057,
          -0.23980383162881444,
          -0.286667819941358,
          0.07048166597244292,
          -0.3186060366952623,
          0.08153907375339148,
          0.019694690805184684,
          0.16887540575340818,
          0.31697186665028254,
          -0.10859862555109696
        ],
        [
          0.6389744297890055,
          0.5587829928529066,
          -0.11464986403669743,
          0.3257206297780698,
          0.3105975538328608,
          0.07943207933241578,
          -0.4118370852075866,
          0.398983405263608,
          -0.38153783705920663,
          -0.5247299576857155
        ],
        [
          0.08463928168156779,
          -0.47396981793751847,
          0.5274063186130261,
          0.11384707027322845,
          -0.30196474539298035,
          0.5590892711938485,
          0.43275143921474196,
          -0.006676633486291706,
          -0.09861822524137781,
          0.3399277301776011
        ]
      ],
      "b2": [
        [
          -0.006400327162146742,
          -0.02251886173135345,
          -0.002589628978378039,
          0.010614489848474023,
          0.009023387668848644,
          0.010562497653296499,
          -0.000544225308722014,
          0.004761359429300568,
          0.0029768627888175033,
          -0.005885554195385974
        ]
      ]
    },
    "pos_3": {
      "W1": [
        [
          -0.5887957061611985,
          -0.13158442720642807,
          -0.26287941035823237,
          0.07850521205692826,
          -0.08169676386882359,
          0.2524909532614899,
          0.09702759837929546,
          -0.2857925542422509,
          0.21479204842836055,
          -0.5614457438395768,
          0.12139287395475784,
          -0.36526525883983096,
          -0.6214384547216263,
          0.3865520120466172,
          0.5647454646040194,
          -0.13453619369063563
        ],
        [
          -0.14182318592155796,
          0.6665232087671885,
          -0.17097532655917955,
          0.08221530908161961,
          0.975545206815215,
          -0.3445331694480903,
          -0.3338693919315113,
          -0.18607100065188473,
          -0.6893704208925128,
          -0.009565361484869991,
          0.7245615608372769,
          -0.4746269794824918,
          -0.11730481054979769,
          0.41343372307248927,
          0.19218039706929532,
          -0.0579735830800941
        ],
        [
          -0.5715833727025496,
          -0.2036210364902689,
          0.2973723228559425,
          -0.844195720455659,
          0.6679595305810747,
          0.16514315654201264,
          -0.20044687875966707,
          0.20157123591436665,
          0.6345673530070332,
          0.11746290469461255,
          -0.2582434020032113,
          0.4620090191624005,
          0.7930641788594301,
          -0.43198486290512556,
          0.03765856390655059,
          0.036218603171525865
        ],
        [
          0.02247644223137308,
          0.09948981169522973,
          0.1830005976762739,
          -0.27585364883232966,
          0.35814025061231913,
          0.18717618014615509,
          -0.049570763932929855,
          0.5216461422188294,
          0.04439905081054892,
          0.35393928521220674,
          -0.2755484908698599,
          0.32112173597917976,
          -0.03344514799240155,
          -0.1989285147724655,
          0.15363605429643998,
          0.05502309013288766
        ],
        [
          -0.13697955976174037,
          -0.6727855617121103,
          0.6073705757913093,
          -0.563657111474428,
          -0.03536280715155361,
          0.12545175528797964,
          -0.3265887211506649,
          0.5314827794759114,
          -0.26829166991766046,
          0.8113240996561065,
          -0.45817470042386577,
          0.24267207107016717,
          0.49945127269563916,
          0.6069527945995676,
          -0.31677343922414314,
          0.5983868663132926
        ],
        [
          -0.04638906282809541,
          0.31739809208741804,
          0.3682298565550964,
          0.07324409615347427,
          0.1587108091301691,
          0.15940908439985516,
          -0.13622346320845372,
          0.5755879627703111,
          0.4400813670695144,
          -0.031865586574624176,
          -0.9455508624116549,
          -0.4298261947834752,
          0.8329733877653762,
          0.2922934124153373,
          -0.3793917455185659,
          -0.2837587243336543
        ],
        [
          0.004086339293259118,
          -0.39549720841963093,
          0.9435851399117379,
          0.19424561514882904,
          -0.10241347990301285,
          -0.1712840128570141,
          -0.11209920572264721,
          -0.14447524222341707,
          0.4824467618634144,
          0.36453490925824944,
          -0.2738287125894763,
          0.2159338500267054,
          -0.616437218967653,
          -0.009200567551192532,
          -0.5761904299099065,
          0.4079944974735694
        ],
        [
          -0.17545225521831803,
          0.08464321038964692,
          0.4977686333886604,
          -0.09565530713477877,
          -0.2673037315483701,
          -0.11423714975083192,
          -0.7094395103382185,
          -0.33571724213701715,
          0.7999827912075422,
          -0.9261489224551057,
          0.3563964589246152,
          0.20427129426510435,
          0.6703814124621887,
          0.1012323585088304,
          -0.17056430028085093,
          0.11238779804096961
        ],
        [
          0.4406435023216601,
          0.4019921999542432,
          -0.12015757109419757,
          0.08835662906180929,
          -0.4681620536133146,
          0.019113999374669503,
          0.5376051101972511,
          -0.011274961771972418,
          0.39493709016837714,
          0.5636903762858888,
          -0.48182776853216686,
          -0.35522206265391726,
          -0.04664417590466049,
          -0.35591602740044337,
          0.7818291516734274,
          -0.24518346405523644
        ],
        [
          0.00038841829205099213,
          -0.6053454018948194,
          -0.854477042398266,
          -0.18055328059251824,
          -0.10485129142462804,
          0.39474809363656044,
          -0.1849182852931886,
          -0.4245213705981153,
          -0.1298666773019424,
          1.0351857284481296,
          0.5829937083757873,
          -0.41984686162556367,
          -1.1749886039131312,
          0.28408250725115053,
          0.2512191326602779,
          -0.04715762756055597
        ]
      ],
      "b1": [
        [
          0.0,
          -0.0009689289784368426,
          -0.07658353010956977,
          0.0012278042247626717,
          0.010935568190964787,
          0.016622437170860132,
          -0.0048907049754210305,
          0.0049907353436814735,
          -0.04330605613045901,
          0.016213741320208686,
          -0.003297000047948822,
          -0.01502947388650267,
          -0.010028964950002463,
          -0.019248873523387645,
          0.010677044139920983,
          0.006620604158729327
        ]
      ],
      "W2": [
        [
          -0.18849810636506348,
          -0.2883211347546192,
          0.504138424598865,
          0.9434187022029112,
          0.026704453172363078,
          0.10343434553730674,
          0.26578002688444363,
          -0.11958340866585777,
          -0.17098809343873167,
          0.06582376867989145
        ],
        [
          -0.11347088122027325,
          0.24578406607394174,
          -0.26872536492555593,
          0.22847320075165076,
          0.19154633280516672,
          -0.1244137263950137,
          0.1520603883360109,
          -0.21608861252019052,
          -0.25615723022947606,
          -0.4648647448258675
        ],
        [
          -0.49941743896190083,
          0.16945516914796901,
          -0.2202832716118764,
          0.1389122479054437,
          0.23902945665391584,
          0.022745630889115836,
          -0.4449619332574086,
          -0.5584604208964475,
          0.28061869343198415,
          0.6447379713097997
        ],
        [
          -0.4071689336898397,
          0.021934452222083574,
          0.2427209683127238,
          -0.39329717003749887,
          0.08715012517840974,
          -0.5632493988153825,
          0.3013426167233722,
          0.22871915213715543,
          -0.3315596352292292,
          -0.21657748961668247
        ],
        [
          0.06018318362992327,
          -0.09132419071177188,
          0.08827349550383924,
          0.3786758106012034,
          -1.239754241174784,
          0.17403309400530262,
          0.0696738789307201,
          0.25505468545971793,
          0.09930297029260554,
          -0.9753471268674945
        ],
        [
          -0.06177434442798683,
          -0.4531374983735996,
          -0.06978035827431962,
          0.15361050512694252,
          0.514395126423359,
          -0.5962348464949967,
          -0.16772337737240614,
          -0.08739933933002515,
          -0.30648310479565427,
          -0.5091771348357388
        ],
        [
          -0.30866793311231844,
          0.7066579998127894,
          0.6204726665165206,
          -0.3618598930434704,
          -0.346513534981838,
          0.2472116152786857,
          -0.26277576355041143,
          0.2771376001745353,
          -0.20804403613621333,
          -0.6014545181939313
        ],
        [
          0.4011685173433226,
          -0.14208068093894147,
          -0.0077545318690724315,
          0.5465503385644856,
          -0.0338898959650542,
          0.427308351013071,
          0.2964110583048017,
          0.6662268893866754,
          -0.2509295927899911,
          0.28392178309403365
        ],
        [
          -0.623620036681907,
          0.22287419281851467,
          0.05992425291255342,
          0.013995753265050436,
          0.3920438028209742,
          -0.8100264306604369,
          -0.4727534551234484,
          0.09780088713142382,
          0.13580838905709294,
          0.46730147313115605
        ],
        [
          0.003952949989958487,
          -0.4660004466721279,
          0.006441044184288454,
          -0.21379995964794135,
          0.2675226471979419,
          -0.196423704314801,
          0.2659261207920201,
          -0.6591904367791764,
          0.07997928716625859,
          0.00886819461790377
        ],
        [
          0.10496096572286752,
          -0.34335368120570137,
          -0.04675857014668556,
          -0.0923199099621339,
          -0.5499128014857473,
          -0.4317366151636652,
          0.026889820898994162,
          -0.16950211527814327,
          -0.2621963466541531,
          -0.4519259749891822
        ],
        [
          0.16629396505635594,
          -0.43263906543954483,
          0.05038124372233652,
          0.550138173351783,
          0.014437654006781027,
          0.4015841833309009,
          -0.09871461981823226,
          -0.25039816299174417,
          -0.26994989090628735,
          0.5027120207914546
        ],
        [
          -0.45746968346725586,
          0.09278454509230251,
          0.06456175890955819,
          0.3599648251155913,
          -0.18222236022591495,
          0.8345328895649876,
          -0.5639756461938619,
          -0.18588689263880867,
          0.3060014463082124,
          -0.41243945046784347
        ],
        [
          -0.4578563802764505,
          0.25778134875301945,
          0.3464573253159914,
          0.3021058270231929,
          -0.09394740432796714,
          0.4984128589740187,
          -0.044501860940428975,
          0.8422315125799672,
          -0.24254184880206028,
          0.043289031572197184
        ],
        [
          0.1824837201171583,
          -0.23628766014897715,
          -0.15997394207201604,
          -0.4045318180343292,
          -0.6562877145983644,
          0.250720787270817,
          -0.5148903749629451,
          0.013223753884610206,
          0.5869247780275588,
          0.3619961870958155
        ],
        [
          -0.5256594176268221,
          0.3912527739955139,
          -0.34491837428045163,
          -0.176499403412106,
          -0.3542672294141394,
          -0.0719968791875388,
          0.4109740578967873,
          0.2526688074267441,
          0.2962186823114977,
          0.19108270552463696
        ]
      ],
      "b2": [
        [
          0.028571340377176728,
          -0.01156848901176325,
          -0.007663311904317376,
          -0.037606193707937774,
          0.010663520932575476,
          -0.007708996582168518,
          0.027346601475404585,
          0.030419305304601456,
          -0.001960892686468949,
          -0.03049288418489848
        ]
      ]
    },
    "pos_4": {
      "W1": [
        [
          -0.4156523879617511,
          -0.3783435026361546,
          0.7225929362569303,
          0.09983374398364825,
          -0.40618712598243306,
          0.6575995659857857,
          0.17495622541449227,
          0.20963622029270343,
          -0.23094321087857778,
          -0.3244913327659046,
          -0.08170393515055618,
          -0.9328226936299421,
          -0.7887148955842928,
          -0.5323227811551958,
          0.4694728869307601,
          -0.060320858085641596
        ],
        [
          0.4475474694066555,
          0.40941871136893443,
          -0.852937652803615,
          0.5380174727367351,
          0.4733284168663935,
          0.699615553711744,
          0.3945134754388826,
          -0.30677021551422357,
          -0.7668304395672663,
          0.1133788961352063,
          0.59837616552242,
          0.7592637304960073,
          -1.0671245818624528,
          0.005970949386541381,
          -0.01895278650100491,
          0.9302941861803292
        ],
        [
          -0.055835658985029214,
          0.8636548385149141,
          0.18344032588148212,
          -0.3754903429650275,
          0.37160420994076976,
          0.8789777117661021,
          -0.06703540077036406,
          -0.029046822542085255,
          -0.4669190503209078,
          0.33065089868320574,
          -0.7601060013438439,
          -0.518425771870106,
          -0.35019846048864933,
          0.39416406016978606,
          -0.14681277150357297,
          -0.4593798418393575
        ],
        [
          -0.3298936014368494,
          0.0061403436136826086,
          -0.916880917980957,
          0.228817757623313,
          0.37154842799267657,
          -0.11086920128456117,
          0.46363074595247566,
          -0.08954642144239146,
          -0.2831107083354844,
          -0.8157489029070581,
          -0.5660245523910129,
          0.8419007141186825,
          0.3699428198130155,
          0.5258096173383933,
          0.31867722580641655,
          -0.5533548158982692
        ],
        [
          0.012580955404973473,
          0.3286510427542401,
          0.08854851240727073,
          0.4699210907944487,
          0.8680910309045146,
          -0.2440703934795303,
          0.14703645276802815,
          -0.8682939077893923,
          -0.15165038620356128,
          -0.6101753047034245,
          -0.03298628791887419,
          -0.15982364681873387,
          -0.5119610751184199,
          -0.1468632139645584,
          0.022452793852049322,
          -0.2532411686700395
        ],
        [
          0.35348932352980866,
          -0.5729691942389636,
          0.567544580689513,
          -0.011060876126891354,
          -0.5380235984629703,
          -0.014005792582191494,
          0.09915316491016772,
          0.8144391181089032,
          -0.1526633474890714,
          -0.4470613765953912,
          -0.47028319085107134,
          -0.17574435159353433,
          0.14856081183895956,
          -0.3068977413895873,
          0.7545267362696786,
          0.19049400008701808
        ],
        [
          -0.29621259260370053,
          0.09992476137691589,
          1.0137971887016242,
          -0.0956794349689083,
          0.3209700987848894,
          -0.5108029587995138,
          -0.5537838901739164,
          -0.01838895718555104,
          -0.2863372003881687,
          0.10157238009130265,
          -0.43917396936122416,
          0.03576563732244861,
          -0.012678142467027727,
          -1.348729539545526,
          0.19423048250196587,
          0.4481281395830992
        ],
        [
          -0.15549583915811782,
          0.2572795921607683,
          -0.4340884713788992,
          -0.21008400349557418,
          0.13778175033664344,
          -0.13822680617456842,
          -0.2994222550465991,
          -0.11188984940079995,
          -0.1972554847713869,
          -0.12010426322677012,
          0.5978836033296985,
          -0.24504758890671743,
          -0.021818913632797213,
          0.5919460526087142,
          -0.6662819597087921,
          0.7405444561258415
        ],
        [
          0.06268470323714595,
          -0.27317006533030264,
          0.21537926650033318,
          -0.018053941749545683,
          -0.653297174734542,
          -0.10730768101820559,
          -0.6876263178632752,
          0.7199382562506853,
          -0.039764269448738815,
          0.2548173136025819,
          -0.0024801161761497975,
          -0.4298007498081099,
          -0.5516527376788548,
          -0.2026632204185584,
          -0.24857530575771858,
          0.7654837393436343
        ],
        [
          0.6179876031280841,
          -0.41009972839096254,
          -0.6061862117661416,
          0.39396483550323275,
          0.12167875759034029,
          0.4780694392650368,
          -0.08933523598476291,
          0.15277024272801093,
          0.574366593766809,
          0.5058951461410655,
          -0.3525723779845724,
          0.1499468871863371,
          0.6138807379697859,
          -0.29238914378501857,
          0.07968855702581751,
          -0.2596662950902581
        ]
      ],
      "b1": [
        [
          -0.01592597520294358,
          -0.0025402082709362135,
          0.015307466079418176,
          -0.008988531547878905,
          -0.025634650857493488,
          -0.031569476240338394,
          0.012615986044413757,
          0.009041747649808552,
          0.0,
          -0.011209933049329872,
          0.011145568669507772,
          0.016433825185211734,
          0.0006402202818927192,
          0.006660845205560944,
          -0.024443988251467878,
          -0.025131303222590894
        ]
      ],
      "W2": [
        [
          0.044840483309258355,
          0.3717496644670274,
          0.042261306478169364,
          0.20940220388203595,
          0.41692575749684274,
          0.3403190106720699,
          -0.5591401341990182,
          -0.18628887456587095,
          0.06619195127065797,
          -0.6431528660600506
        ],
        [
          -0.031582685840218915,
          -0.16785056471232732,
          -0.40521158017439185,
          -0.20436009787491025,
          0.022175045595869074,
          0.08280662998655124,
          -0.129133389760502,
          -0.06549087229510868,
          -0.5287259030767605,
          0.3514461606372494
        ],
        [
          0.12460717922221459,
          0.3681938253993179,
          -0.11293739677018168,
          0.14659220578602264,
          -0.15280903495647336,
          0.27359250192694834,
          0.5089735972349535,
          0.15827912815351544,
          -0.42494324998900507,
          0.20428745124479594
        ],
        [
          0.4787259188321639,
          -0.1888251471368186,
          0.12011190800250436,
          -0.1678929671437183,
          -0.17824985791972686,
          -0.08851194773317693,
          -0.2936896933009094,
          -0.06875571470684272,
          0.28099563644046044,
          -0.1807626669014811
        ],
        [
          0.3793097108858101,
          0.3773108253035132,
          -0.46119804847676465,
          0.4553177099332145,
          -0.12601070565922448,
          0.3202836994740413,
          -0.16407771476281235,
          0.05848632462005598,
          0.6279020283178257,
          -0.08689982751275552
        ],
        [
          0.06784344875293284,
          -0.3392149294286594,
          -0.14865188011163605,
          0.27092815185595837,
          0.7010856115177375,
          0.285370195223914,
          0.3159013325637933,
          -0.4948888179127339,
          0.6714823645852726,
          0.21668075292703187
        ],
        [
          0.3881606626094189,
          -0.0994515996302224,
          -0.06366218547768736,
          -0.6883507616743166,
          -0.16709153543923377,
          -0.12828988004540587,
          -0.3064301635053393,
          -0.024494239429261554,
          -1.085259090387712,
          -0.18826515863293633
        ],
        [
          0.10073224295277243,
          -0.13219623039352177,
          -0.07557701071058831,
          0.30647929724733647,
          0.3036594509858846,
          0.21049994386032372,
          0.6224205569787329,
          0.6211844122295341,
          0.038346428245207016,
          0.3066385323952466
        ],
        [
          -0.11586554833307737,
          0.5080355900522162,
          0.41208053597997,
          0.35643033607085695,
          -0.1568430042177094,
          0.572757513776491,
          0.01830272091915191,
          -0.22425180128464323,
          -0.23576306362866328,
          0.051253633718681954
        ],
        [
          0.3145189687020617,
          0.24685710319781967,
          0.2252687521622747,
          0.6632662450847077,
          0.22296404698022487,
          -0.16970995142295847,
          -0.017496093573298937,
          0.03803806353902179,
          0.018180908179105896,
          -0.011625952647353707
        ],
        [
          -0.4374641458377738,
          0.38428740787618976,
          -0.19399978361900477,
          0.46433328209778196,
          0.6323839577735881,
          -0.19500439489659294,
          0.22668402281233146,
          0.3127278825862199,
          0.1899691155474628,
          0.02357646494179178
        ],
        [
          -0.4346922521523182,
          0.1932271228011221,
          0.9165476682609636,
          0.7371890027667204,
          -0.4915485453888456,
          -0.40811339149079445,
          0.23881987444296535,
          -0.07345651678259627,
          -0.5889280781036107,
          -0.07070087981727936
        ],
        [
          0.32746271983010505,
          0.2669845854844054,
          -0.15543051102681005,
          0.2981072896799216,
          -0.15042018047897424,
          -0.03047051841704023,
          0.048551626650947644,
          0.35972956601446415,
          -0.5682336880570081,
          -0.24239354223827392
        ],
        [
          0.12859179586321118,
          -0.45679688531312307,
          0.08572499212754071,
          -0.21999113410568494,
          -0.07068270155808597,
          -0.22831560408427734,
          0.107270941132082,
          0.22551989409255782,
          -0.19992654420376146,
          -0.18903600646009325
        ],
        [
          -0.22886524124845986,
          -0.015175664066284452,
          0.45414120579782685,
          0.12863370678296784,
          0.27507716770574464,
          0.1997794017436511,
          -0.351749622479559,
          0.42063652728206086,
          0.7636869542068435,
          0.1611774301544471
        ],
        [
          0.22611439080499773,
          0.13161037671499495,
          -0.30427930201012143,
          0.4597425639011036,
          0.03454811212870448,
          -0.2504347362071145,
          -0.40112109216479647,
          -0.15024873321215731,
          -0.4531736049335228,
          0.7884933845647775
        ]
      ],
      "b2": [
        [
          -0.008148693649633621,
          0.004421167446853997,
          0.0059649582221082235,
          -0.02016427942673508,
          -0.0056057197412787895,
          -0.006421874673416737,
          0.02176756308286859,
          0.025649039227313035,
          -0.01220016869670843,
          -0.005261991779626837
        ]
      ]
    },
    "pos_5": {
      "W1": [
        [
          0.5363629219956726,
          -0.6804406508468881,
          -0.059336086536187486,
          -0.6474433050765714,
          -0.1876666031531823,
          -0.0756042621050395,
          -0.019368963447820426,
          -0.057268240303992655,
          0.526979871132699,
          -0.5041675415157999,
          0.3650689484928192,
          0.032436026322802534,
          -1.1567980599750483,
          0.3053131747619286,
          0.09366268607118079,
          0.22898071931279723
        ],
        [
          -0.029529055082389996,
          -0.5341543350923167,
          0.2224059623037908,
          0.11969794467073692,
          0.11309691870438,
          0.35177655905296135,
          -0.22974065987098535,
          -0.7004186235473998,
          -0.24273541388339986,
          0.15515902083359312,
          -1.0014657018846755,
          -0.9311488198909139,
          0.021637775223127664,
          -0.3490594946908434,
          0.3834796301490787,
          -0.14045667948859958
        ],
        [
          0.24977591309623925,
          0.08418632106227207,
          1.2228974821705836,
          0.6083711307570869,
          -1.1289521451890936,
          0.054942654138737314,
          0.05868105103407806,
          0.3843358887066613,
          -0.5025536817693145,
          0.3682351319167276,
          -0.017920844932873582,
          -0.4178692317919688,
          0.2810447487617215,
          0.19404577288610855,
          -0.10703683081909102,
          -0.6446739678450149
        ],
        [
          -0.03266499784751511,
          -0.2930114401681061,
          0.888301788936907,
          -0.4109365215179597,
          -0.4612460166363777,
          -0.23020352822153894,
          0.3552170279295643,
          0.3444694151718191,
          0.4469538406587316,
          0.032079546798992616,
          -0.4124745248335169,
          -0.25865872958832625,
          -0.8638741609707115,
          0.9151740840472099,
          0.958505315456827,
          0.4870939876460637
        ],
        [
          -0.36927636179904455,
          0.8676906851668816,
          -0.16093578130595357,
          0.41195422769185674,
          -0.1721875886252028,
          0.3670700714271948,
          -0.7651105949082014,
          -0.39510816841804397,
          -0.4236979555702411,
          -0.5701930705363929,
          0.06168593351124654,
          -0.07957066390895705,
          -0.1166175850106127,
          -0.2544837019010031,
          -0.40963927869970473,
          0.12737778666120725
        ],
        [
          0.035221134386023055,
          0.10100194277068711,
          -0.26070370117520797,
          -0.08245703903600048,
          -0.4386256393479119,
          0.12531578160325024,
          0.7370102835440074,
          -0.05122516949732546,
          0.5529576754453625,
          -0.3538032169937104,
          0.35570069219428496,
          -0.22365434596220862,
          0.7036554949014829,
          0.2398012560481802,
          0.7266392387611975,
          0.32161246990235837
        ],
        [
          0.11919801440435603,
          -0.35322356346209977,
          -0.007845194897730973,
          0.6297374439716014,
          0.22102882616036273,
          0.34920174838825985,
          -0.2527455452531257,
          0.12636990307097837,
          -0.19118933021812207,
          -0.2715640608248292,
          -0.23861990772947542,
          0.9506823716509384,
          0.4938592731890281,
          0.7994297712573225,
          0.30874090218672806,
          0.03428740874921468
        ],
        [
          -0.01575568594465226,
          0.3111896838450973,
          -0.4986132077310523,
          -0.4325033910844783,
          -0.12644840557537587,
          0.09590955793163383,
          -0.2941084680419224,
          -0.44367338693935426,
          -0.11248976603041363,
          -0.606500872659071,
          0.40870297639600117,
          -0.2923536297834615,
          0.8699625084867002,
          -0.12450046236619672,
          0.5216813605451003,
          0.3628223938423196
        ],
        [
          0.4630361443825034,
          -0.4326479395674467,
          -0.6664549307988972,
          0.12263471862954117,
          0.4614342609024826,
          -0.38325795261763473,
          0.360696136702067,
          0.19434306652494582,
          -0.19925023795969357,
          0.21127382541488213,
          -0.1354568524691478,
          -0.27177749559377834,
          -0.41460471274441824,
          -0.8696428099305695,
          0.0052083702841947375,
          0.0011429054057359189
        ],
        [
          -0.38171790216642937,
          0.5706248105503988,
          0.07320130644874101,
          0.1940199406145464,
          -0.5380129134959722,
          0.7543542909728084,
          0.009094838588798237,
          0.2808311347936084,
          0.5455493457963252,
          0.21639715109092905,
          0.15704729384766075,
          -0.6130145564403231,
          0.22121126203062472,
          0.8784504742973366,
          -1.0608962590392903,
          0.29818444592911236
        ]
      ],
      "b1": [
        [
          -0.03671758945702276,
          0.01466440088968872,
          -0.0058329535718073516,
          -0.007729793291448641,
          0.00025451413323151773,
          -0.013253361321260705,
          -0.004101750677210475,
          -0.017367750173597957,
          -0.018523788810979613,
          0.009315027395310557,
          -0.0009840458662005482,
          -0.0006628333462084392,
          -0.01641338388105998,
          -0.0032648503525458715,
          0.00024553678276197,
          -0.03262858966803231
        ]
      ],
      "W2": [
        [
          -0.28471144426866846,
          -0.09737290141024349,
          0.607045773234248,
          -0.7844982792227838,
          0.3265487489715734,
          0.3918124079880533,
          -0.18127752577516662,
          -0.11177343136026516,
          -0.24961187142274927,
          -0.0992067908102443
        ],
        [
          -0.1668490685120208,
          0.06048685119349186,
          -0.3908895019073616,
          0.15210345064510583,
          -0.0914782532696734,
          0.23069741667904534,
          -0.09648042804464238,
          -0.9131536258630707,
          0.30073188210637514,
          0.9933948212640684
        ],
        [
          -0.33785305184347186,
          0.27729260456304095,
          0.16036503379415804,
          -0.09449064047937207,
          0.04908912748858276,
          -0.2681265645691312,
          0.3694241263760774,
          0.30911623520275183,
          -0.14814913137819608,
          -0.19680825945643982
        ],
        [
          0.40874151692723565,
          -0.019208867796894336,
          0.8682514210229686,
          -0.28774215377839896,
          -0.204494571487963,
          0.1818244008121605,
          -0.09476204898345533,
          -0.5057255407392122,
          0.04315954539606088,
          0.06997846018935873
        ],
        [
          0.17704214686905365,
          -0.30623860516147483,
          -0.12165438686205529,
          -0.16235234670902532,
          0.1392688034246391,
          0.39904299100367013,
          -0.013590262350785455,
          0.3615426010501012,
          0.051500529056383124,
          -0.20088343158723615
        ],
        [
          0.36648646900375154,
          0.12599789969029468,
          -0.4909043056773922,
          -0.38228160361745245,
          0.2109109649730288,
          0.3698221290133085,
          -0.09130436412680565,
          0.21314124477189292,
          0.027749389277729717,
          0.2522849571359076
        ],
        [
          -0.11171972086556582,
          0.564676759891002,
          -0.4417473341218748,
          -0.32087718783678576,
          0.2688351724097941,
          0.19559407134608425,
          -0.6677188271129535,
          -0.39185244526066293,
          0.6808470833030353,
          -0.21459704439308333
        ],
        [
          0.4606045752971677,
          0.055735562278575776,
          0.41381662006795583,
          -0.2539298846069635,
          0.4321707043025349,
          0.5343392217178246,
          -0.2460912500318819,
          -0.483951082276235,
          0.09436519757678037,
          -0.2654517391229379
        ],
        [
          0.09120576192375265,
          0.3090095340637237,
          0.5363159310885783,
          0.42188697804877295,
          1.0938397743244055,
          0.15809156985303624,
          0.22766161306597676,
          -0.16571483440879706,
          -0.011336415253106684,
          0.10741111856470434
        ],
        [
          0.005279455101932441,
          -0.5193678671006975,
          0.16762548013792045,
          0.32497875409392696,
          0.02739289984018239,
          -0.249830018984711,
          0.16033701592774974,
          0.20158353237103896,
          0.6491627195021827,
          0.34138419968100486
        ],
        [
          -0.02543788470721685,
          0.03060288240679292,
          -0.26701172074542906,
          -0.05681747488193441,
          -0.2695000289244785,
          0.2875389465975899,
          0.12611181537753546,
          0.05010945890731496,
          0.8974155853518733,
          -0.14985513793290395
        ],
        [
          -0.05419834904250898,
          0.3937498953352811,
          -0.30165191846071027,
          0.09918460929185043,
          0.22513513603645027,
          0.04943986178788384,
          0.15200698629214598,
          -0.1875822955559808,
          -0.4990215006262044,
          -0.1157761093756742
        ],
        [
          0.09872228520216035,
          -0.46226813014496015,
          -0.09779596885354222,
          -0.37857985648461034,
          0.16667900157349788,
          -0.12577027955699782,
          -0.35101326729883675,
          -0.09773096563578246,
          0.5760584830059613,
          -0.1866326702510995
        ],
        [
          0.13678280789120614,
          -0.06817038779671303,
          -0.20228058276422653,
          -0.17649236839251137,
          -0.050631623910814966,
          -0.05868964322057138,
          0.17152156017084988,
          0.06759906419597088,
          -0.5225500807910213,
          -0.2003110344011912
        ],
        [
          -0.1503717822930452,
          -0.2112974941244008,
          -0.2477876589058315,
          -0.4005818426488646,
          -0.5862065503653194,
          -0.6388924386027245,
          -0.3597451000876038,
          -0.4132523939382531,
          0.31067952148011146,
          -0.376901417397388
        ],
        [
          0.3771330185860248,
          -0.1334963908274504,
          0.4162218638993277,
          -0.32673661237952684,
          1.0187459414195839,
          0.20103183072615008,
          0.742495156107316,
          0.39857230512736497,
          -0.1951023196529529,
          0.024507059482316417
        ]
      ],
      "b2": [
        [
          -0.0037622402216603472,
          -0.0022788135644085826,
          -0.009776891084361415,
          0.037622725899606094,
          0.0030021859941640103,
          -0.01397256177496865,
          -0.014431665559276052,
          -0.0018008273676938214,
          -0.0023496948084661276,
          0.00774778249912296
        ]
      ]
    }
  },
  "epochs_trained": 100,
  "learning_rate": 0.01,
  "game_name": "super6",
  "num_digits": 6,
  "last_updated": "2025-12-20T21:25:52.566572"
}